{
  "sizes": [
    10,
    10,
    1
  ],
  "layers": [
    {
      "0": {},
      "1": {},
      "2": {},
      "3": {},
      "4": {},
      "5": {},
      "6": {},
      "7": {},
      "8": {},
      "9": {}
    },
    {
      "0": {
        "bias": 0.22044076025485992,
        "weights": {
          "0": -1.3216071128845215,
          "1": 10.563495635986328,
          "2": 0.8929281830787659,
          "3": 0.3451397120952606,
          "4": 6.031069755554199,
          "5": 0.501960813999176,
          "6": -1.1113626956939697,
          "7": 1.6193329095840454,
          "8": -5.431711673736572,
          "9": -0.9773146510124207
        }
      },
      "1": {
        "bias": 1.7810224294662476,
        "weights": {
          "0": 1.514667272567749,
          "1": -8.923506736755371,
          "2": -0.7484340071678162,
          "3": 1.9875543117523193,
          "4": 0.386834055185318,
          "5": -0.49780887365341187,
          "6": -0.007051393389701843,
          "7": -0.4068228006362915,
          "8": -3.304696798324585,
          "9": -0.02898344211280346
        }
      },
      "2": {
        "bias": 0.5274442434310913,
        "weights": {
          "0": 1.5941346883773804,
          "1": -8.965837478637695,
          "2": -0.43266919255256653,
          "3": 0.6801139116287231,
          "4": -5.170193672180176,
          "5": 0.6742040514945984,
          "6": -4.1561737060546875,
          "7": -1.3847230672836304,
          "8": 1.7064193487167358,
          "9": 0.7717228531837463
        }
      },
      "3": {
        "bias": 1.0532257556915283,
        "weights": {
          "0": -0.572855532169342,
          "1": -7.812065601348877,
          "2": -3.1945464611053467,
          "3": 1.0076032876968384,
          "4": 1.7307500839233398,
          "5": -3.4663798809051514,
          "6": -0.577238917350769,
          "7": -3.11385178565979,
          "8": 0.7334701418876648,
          "9": -0.0030771547462791204
        }
      },
      "4": {
        "bias": 0.5834189653396606,
        "weights": {
          "0": 0.6550226807594299,
          "1": -10.421613693237305,
          "2": -1.5618327856063843,
          "3": 0.7988075613975525,
          "4": -0.42286378145217896,
          "5": -1.091256022453308,
          "6": 0.9334356188774109,
          "7": -0.28186526894569397,
          "8": -1.6817809343338013,
          "9": -0.0835321769118309
        }
      },
      "5": {
        "bias": -0.7631962299346924,
        "weights": {
          "0": 2.5849809646606445,
          "1": 9.230525016784668,
          "2": 1.7232849597930908,
          "3": -0.7615516185760498,
          "4": 2.0322318077087402,
          "5": 2.1407382488250732,
          "6": 2.0928092002868652,
          "7": -1.134568214416504,
          "8": 0.06380757689476013,
          "9": -0.022116025909781456
        }
      },
      "6": {
        "bias": 1.766189455986023,
        "weights": {
          "0": 0.10112414509057999,
          "1": -12.463818550109863,
          "2": 0.06421831995248795,
          "3": 1.9373129606246948,
          "4": 1.1386932134628296,
          "5": 0.26441657543182373,
          "6": -0.0044923811219632626,
          "7": 0.9989045858383179,
          "8": 0.546833336353302,
          "9": -0.05410684272646904
        }
      },
      "7": {
        "bias": -0.6257537603378296,
        "weights": {
          "0": 0.5600349307060242,
          "1": 7.887155055999756,
          "2": 3.1407630443573,
          "3": -0.5638020038604736,
          "4": -1.1834650039672852,
          "5": 0.08703732490539551,
          "6": 5.358338832855225,
          "7": -1.1562784910202026,
          "8": -0.39649268984794617,
          "9": 0.08324149250984192
        }
      },
      "8": {
        "bias": -0.6731659173965454,
        "weights": {
          "0": 0.3917372524738312,
          "1": 7.570869445800781,
          "2": 3.1788065433502197,
          "3": -0.5121244788169861,
          "4": 0.22893516719341278,
          "5": 0.31467804312705994,
          "6": 5.041769981384277,
          "7": -1.1186070442199707,
          "8": 0.08887414634227753,
          "9": 0.07101884484291077
        }
      },
      "9": {
        "bias": 1.0758225917816162,
        "weights": {
          "0": 0.827185332775116,
          "1": -10.181221961975098,
          "2": 0.5401545166969299,
          "3": 0.8657581210136414,
          "4": 2.863025426864624,
          "5": 0.8588941693305969,
          "6": -1.0578855276107788,
          "7": 2.6540470123291016,
          "8": 2.7506906986236572,
          "9": -0.4159587323665619
        }
      }
    },
    {
      "0": {
        "bias": -0.18649113178253174,
        "weights": {
          "0": -3.593534469604492,
          "1": 2.3429620265960693,
          "2": 1.2508366107940674,
          "3": 6.460813999176025,
          "4": 2.387815475463867,
          "5": -2.434406042098999,
          "6": 1.4786027669906616,
          "7": -1.6615153551101685,
          "8": -1.5384609699249268,
          "9": 2.6076488494873047
        }
      }
    }
  ],
  "outputLookup": false,
  "inputLookup": false,
  "activation": "sigmoid",
  "trainOpts": {
    "iterations": 4845,
    "errorThresh": 0.005,
    "log": true,
    "logPeriod": 100,
    "learningRate": 0.001,
    "momentum": 0.1,
    "callbackPeriod": 10,
    "praxis": "adam",
    "beta1": 0.9,
    "beta2": 0.999,
    "epsilon": 1e-8
  }
}