{
  "sizes": [
    10,
    5,
    1
  ],
  "layers": [
    {
      "0": {},
      "1": {},
      "2": {},
      "3": {},
      "4": {},
      "5": {},
      "6": {},
      "7": {},
      "8": {},
      "9": {}
    },
    {
      "0": {
        "bias": -1.0812214612960815,
        "weights": {
          "0": 1.556693434715271,
          "1": 22.226045608520508,
          "2": 2.283212184906006,
          "3": -0.8490532636642456,
          "4": 4.991760730743408,
          "5": 2.4049232006073,
          "6": 5.04303503036499,
          "7": -1.5896519422531128,
          "8": 1.5072221755981445,
          "9": -0.03217874839901924
        }
      },
      "1": {
        "bias": -1.960687518119812,
        "weights": {
          "0": -1.2500351667404175,
          "1": 22.62617301940918,
          "2": 1.0491706132888794,
          "3": -1.675971269607544,
          "4": -6.84528112411499,
          "5": 1.2914965152740479,
          "6": 12.799324035644531,
          "7": -1.94905424118042,
          "8": -2.1027636528015137,
          "9": 0.2883940637111664
        }
      },
      "2": {
        "bias": 1.8343044519424438,
        "weights": {
          "0": -0.5025889277458191,
          "1": -19.512054443359375,
          "2": -2.40848970413208,
          "3": 1.7518815994262695,
          "4": 2.1060545444488525,
          "5": -2.8951914310455322,
          "6": -0.10462169349193573,
          "7": 0.07743415981531143,
          "8": 0.44652464985847473,
          "9": -0.009142312221229076
        }
      },
      "3": {
        "bias": 3.6593847274780273,
        "weights": {
          "0": 0.6067096590995789,
          "1": -19.705427169799805,
          "2": -0.7754425406455994,
          "3": 3.394904851913452,
          "4": -0.5231391787528992,
          "5": 0.12416188418865204,
          "6": -0.3060278594493866,
          "7": 0.5157707929611206,
          "8": -0.9756664037704468,
          "9": -0.17919251322746277
        }
      },
      "4": {
        "bias": -0.2561705708503723,
        "weights": {
          "0": 0.3824577331542969,
          "1": 25.434263229370117,
          "2": 2.90053129196167,
          "3": -0.28626495599746704,
          "4": -8.894380569458008,
          "5": 3.1520440578460693,
          "6": -2.822611093521118,
          "7": 0.3738514482975006,
          "8": -1.7317653894424438,
          "9": -0.2133127599954605
        }
      }
    },
    {
      "0": {
        "bias": 1.517374038696289,
        "weights": {
          "0": -2.4938905239105225,
          "1": -3.4517340660095215,
          "2": 8.568735122680664,
          "3": 5.512374401092529,
          "4": -4.149755954742432
        }
      }
    }
  ],
  "outputLookup": false,
  "inputLookup": false,
  "activation": "sigmoid",
  "trainOpts": {
    "iterations": 5000,
    "errorThresh": 0.005,
    "log": true,
    "logPeriod": 100,
    "learningRate": 0.001,
    "momentum": 0.1,
    "callbackPeriod": 10,
    "praxis": "adam",
    "beta1": 0.9,
    "beta2": 0.999,
    "epsilon": 1e-8
  }
}