{
  "sizes": [
    10,
    10,
    1
  ],
  "layers": [
    {
      "0": {},
      "1": {},
      "2": {},
      "3": {},
      "4": {},
      "5": {},
      "6": {},
      "7": {},
      "8": {},
      "9": {}
    },
    {
      "0": {
        "bias": 0.27122771739959717,
        "weights": {
          "0": 0.39607205986976624,
          "1": -12.153529167175293,
          "2": -0.16767986118793488,
          "3": 0.06329037249088287,
          "4": 0.12932343780994415,
          "5": 0.006350650452077389,
          "6": 1.4501831531524658,
          "7": -1.2542674541473389,
          "8": 1.7785680294036865,
          "9": -0.17232292890548706
        }
      },
      "1": {
        "bias": 1.3158694505691528,
        "weights": {
          "0": 0.8988957405090332,
          "1": -6.578806400299072,
          "2": -2.165424346923828,
          "3": 1.3604573011398315,
          "4": 1.737085223197937,
          "5": -3.5105109214782715,
          "6": -0.022898254916071892,
          "7": -0.25399893522262573,
          "8": -1.6825573444366455,
          "9": -0.007991256192326546
        }
      },
      "2": {
        "bias": -2.7230184078216553,
        "weights": {
          "0": 0.31585630774497986,
          "1": 9.802125930786133,
          "2": -0.7011052370071411,
          "3": -2.5169215202331543,
          "4": -1.005575180053711,
          "5": 0.4791403114795685,
          "6": 0.1668681502342224,
          "7": 0.21864531934261322,
          "8": -1.3128056526184082,
          "9": 0.019844526425004005
        }
      },
      "3": {
        "bias": 1.2283906936645508,
        "weights": {
          "0": 0.35161855816841125,
          "1": -6.806898593902588,
          "2": -1.9976961612701416,
          "3": 1.0125689506530762,
          "4": 1.4967492818832397,
          "5": -2.959589719772339,
          "6": -2.941054105758667,
          "7": 0.43035614490509033,
          "8": 0.5233862400054932,
          "9": -0.03986204415559769
        }
      },
      "4": {
        "bias": -0.7852280735969543,
        "weights": {
          "0": -0.24799621105194092,
          "1": 7.4777116775512695,
          "2": 2.9623594284057617,
          "3": -0.6862868070602417,
          "4": -1.825110912322998,
          "5": 3.3793179988861084,
          "6": 0.2555846869945526,
          "7": 1.331673502922058,
          "8": -0.5340503454208374,
          "9": -0.0017031559254974127
        }
      },
      "5": {
        "bias": 0.8141618371009827,
        "weights": {
          "0": -0.4384241998195648,
          "1": -12.957218170166016,
          "2": -1.7138381004333496,
          "3": 0.47295284271240234,
          "4": -4.143132209777832,
          "5": -0.3599763810634613,
          "6": -0.10468610376119614,
          "7": -0.2912912666797638,
          "8": -3.4982030391693115,
          "9": 0.07391004264354706
        }
      },
      "6": {
        "bias": -2.1773681640625,
        "weights": {
          "0": -1.6022131443023682,
          "1": 12.312919616699219,
          "2": -1.5980249643325806,
          "3": -2.068441867828369,
          "4": -1.1808693408966064,
          "5": -1.8762168884277344,
          "6": -0.0963173434138298,
          "7": -0.14024898409843445,
          "8": 0.48830166459083557,
          "9": 0.14548662304878235
        }
      },
      "7": {
        "bias": -0.4312247335910797,
        "weights": {
          "0": 0.2464519888162613,
          "1": 12.676427841186523,
          "2": 1.9139975309371948,
          "3": -0.24894043803215027,
          "4": -3.1883206367492676,
          "5": 0.7021799087524414,
          "6": 5.775712966918945,
          "7": -1.0238569974899292,
          "8": -1.380449891090393,
          "9": -0.04351652413606644
        }
      },
      "8": {
        "bias": 1.4694241285324097,
        "weights": {
          "0": -2.9268500804901123,
          "1": -10.070287704467773,
          "2": -1.134272813796997,
          "3": 1.184589147567749,
          "4": -1.2356059551239014,
          "5": 0.26821422576904297,
          "6": 0.004279977176338434,
          "7": 2.597972869873047,
          "8": -1.408063530921936,
          "9": -0.0871383473277092
        }
      },
      "9": {
        "bias": -0.9486531615257263,
        "weights": {
          "0": -0.5856721997261047,
          "1": 8.539689064025879,
          "2": 1.2377840280532837,
          "3": -1.0388188362121582,
          "4": -3.9973151683807373,
          "5": 0.6999913454055786,
          "6": 6.274755001068115,
          "7": -0.7786607146263123,
          "8": -1.2344235181808472,
          "9": 0.13020899891853333
        }
      }
    },
    {
      "0": {
        "bias": 0.23600676655769348,
        "weights": {
          "0": 4.689009666442871,
          "1": 4.848957538604736,
          "2": -4.187078475952148,
          "3": 3.171481132507324,
          "4": -1.4084956645965576,
          "5": 2.9129152297973633,
          "6": -0.7343093156814575,
          "7": -1.7890931367874146,
          "8": 3.112077474594116,
          "9": -1.4333750009536743
        }
      }
    }
  ],
  "outputLookup": false,
  "inputLookup": false,
  "activation": "sigmoid",
  "trainOpts": {
    "iterations": 2636,
    "errorThresh": 0.005,
    "log": true,
    "logPeriod": 100,
    "learningRate": 0.001,
    "momentum": 0.1,
    "callbackPeriod": 10,
    "praxis": "adam",
    "beta1": 0.9,
    "beta2": 0.999,
    "epsilon": 1e-8
  }
}