{
  "sizes": [
    10,
    10,
    1
  ],
  "layers": [
    {
      "0": {},
      "1": {},
      "2": {},
      "3": {},
      "4": {},
      "5": {},
      "6": {},
      "7": {},
      "8": {},
      "9": {}
    },
    {
      "0": {
        "bias": -3.299692392349243,
        "weights": {
          "0": -0.09293082356452942,
          "1": 10.885285377502441,
          "2": -0.645145058631897,
          "3": -2.5013017654418945,
          "4": -0.5810776352882385,
          "5": 0.32497304677963257,
          "6": 0.3727971911430359,
          "7": 0.09153956174850464,
          "8": -0.4493177831172943,
          "9": 0.008687125518918037
        }
      },
      "1": {
        "bias": 2.465266704559326,
        "weights": {
          "0": 0.9442000389099121,
          "1": -9.2204008102417,
          "2": -0.5889644026756287,
          "3": 2.106114387512207,
          "4": 1.7393529415130615,
          "5": 0.8140851855278015,
          "6": 0.008404542692005634,
          "7": -0.5599852204322815,
          "8": -3.851166248321533,
          "9": -0.04667159914970398
        }
      },
      "2": {
        "bias": 0.49926820397377014,
        "weights": {
          "0": -1.045536994934082,
          "1": -11.277803421020508,
          "2": -2.5826127529144287,
          "3": 0.37080004811286926,
          "4": -4.308103084564209,
          "5": -1.6644749641418457,
          "6": -4.660216808319092,
          "7": 0.907443642616272,
          "8": -0.753024697303772,
          "9": 0.11161335557699203
        }
      },
      "3": {
        "bias": -1.3046181201934814,
        "weights": {
          "0": 2.663769006729126,
          "1": 17.44774627685547,
          "2": -0.03521866723895073,
          "3": -1.173613429069519,
          "4": -2.3032143115997314,
          "5": -1.064324975013733,
          "6": -0.8923596143722534,
          "7": -2.6424856185913086,
          "8": -1.9662810564041138,
          "9": 0.13341398537158966
        }
      },
      "4": {
        "bias": -1.500490427017212,
        "weights": {
          "0": -1.2632596492767334,
          "1": 9.043082237243652,
          "2": 1.6658132076263428,
          "3": -1.1049463748931885,
          "4": -1.7383759021759033,
          "5": 3.9238760471343994,
          "6": 2.5971734523773193,
          "7": -0.2989487648010254,
          "8": -0.6035458445549011,
          "9": 0.040739916265010834
        }
      },
      "5": {
        "bias": -1.2237910032272339,
        "weights": {
          "0": -0.12827567756175995,
          "1": 9.386381149291992,
          "2": 2.8053455352783203,
          "3": -0.115469790995121,
          "4": -0.05513887479901314,
          "5": 4.092116832733154,
          "6": 0.5090954303741455,
          "7": 0.3558608889579773,
          "8": -0.4961996376514435,
          "9": 0.002928270725533366
        }
      },
      "6": {
        "bias": 1.5024497509002686,
        "weights": {
          "0": 0.09957421571016312,
          "1": -10.49654769897461,
          "2": -0.5026723742485046,
          "3": 1.3201192617416382,
          "4": 2.060018301010132,
          "5": -1.3184149265289307,
          "6": 0.9729511737823486,
          "7": -0.8706714510917664,
          "8": -1.9795405864715576,
          "9": -0.006444367114454508
        }
      },
      "7": {
        "bias": -0.8858604431152344,
        "weights": {
          "0": -1.1920907497406006,
          "1": 8.331005096435547,
          "2": 0.9939475059509277,
          "3": -0.9849643707275391,
          "4": -3.9223034381866455,
          "5": 0.2736937403678894,
          "6": 9.124700546264648,
          "7": -1.1782368421554565,
          "8": -1.8324363231658936,
          "9": 0.21557308733463287
        }
      },
      "8": {
        "bias": 1.3446247577667236,
        "weights": {
          "0": -1.4158307313919067,
          "1": -9.485535621643066,
          "2": -1.3579262495040894,
          "3": 1.0537140369415283,
          "4": 3.7721080780029297,
          "5": -2.0739593505859375,
          "6": -0.0320972315967083,
          "7": -0.4980684816837311,
          "8": 0.4143534004688263,
          "9": -0.002272673649713397
        }
      },
      "9": {
        "bias": -1.5568159818649292,
        "weights": {
          "0": -1.1059887409210205,
          "1": 8.386598587036133,
          "2": 2.6293933391571045,
          "3": -0.892525851726532,
          "4": -3.0641744136810303,
          "5": 3.923518657684326,
          "6": 0.7032321095466614,
          "7": 2.1454355716705322,
          "8": -0.7017000317573547,
          "9": 0.007135139312595129
        }
      }
    },
    {
      "0": {
        "bias": 0.6933218240737915,
        "weights": {
          "0": -1.9916292428970337,
          "1": 2.8016300201416016,
          "2": 4.733871936798096,
          "3": -3.6033143997192383,
          "4": -1.017816424369812,
          "5": -0.9731586575508118,
          "6": 2.93468976020813,
          "7": -1.2059708833694458,
          "8": 2.6105504035949707,
          "9": -1.4632281064987183
        }
      }
    }
  ],
  "outputLookup": false,
  "inputLookup": false,
  "activation": "sigmoid",
  "trainOpts": {
    "iterations": 2636,
    "errorThresh": 0.005,
    "log": true,
    "logPeriod": 100,
    "learningRate": 0.001,
    "momentum": 0.1,
    "callbackPeriod": 10,
    "praxis": "adam",
    "beta1": 0.9,
    "beta2": 0.999,
    "epsilon": 1e-8
  }
}