{
  "sizes": [
    11,
    50,
    50,
    1
  ],
  "layers": [
    {
      "0": {},
      "1": {},
      "2": {},
      "3": {},
      "4": {},
      "5": {},
      "6": {},
      "7": {},
      "8": {},
      "9": {},
      "10": {}
    },
    {
      "0": {
        "bias": 0.43659186363220215,
        "weights": {
          "0": 0.1146995797753334,
          "1": -2.931999683380127,
          "2": 0.12048101425170898,
          "3": 0.164336696267128,
          "4": 0.5936720371246338,
          "5": 1.9372711181640625,
          "6": 0.47810158133506775,
          "7": -4.1359782218933105,
          "8": -1.0443066358566284,
          "9": 2.9448843002319336,
          "10": -0.7213939428329468
        }
      },
      "1": {
        "bias": -0.9832702875137329,
        "weights": {
          "0": -1.0980366468429565,
          "1": -0.699304461479187,
          "2": -1.1397823095321655,
          "3": 0.052619222551584244,
          "4": -0.962643027305603,
          "5": -1.984373927116394,
          "6": -0.6189805865287781,
          "7": -2.1135740280151367,
          "8": -1.4551187753677368,
          "9": -0.28014761209487915,
          "10": 0.18821553885936737
        }
      },
      "2": {
        "bias": 1.3846256732940674,
        "weights": {
          "0": 0.47012805938720703,
          "1": -0.9168983101844788,
          "2": -0.8762238025665283,
          "3": -0.0982050821185112,
          "4": 1.3208037614822388,
          "5": -1.8962444067001343,
          "6": -2.2252070903778076,
          "7": -0.6465539932250977,
          "8": -0.12977923452854156,
          "9": -2.2641541957855225,
          "10": -0.010473567061126232
        }
      },
      "3": {
        "bias": 0.20862019062042236,
        "weights": {
          "0": -0.8625978827476501,
          "1": -0.6739484667778015,
          "2": -1.6978504657745361,
          "3": 0.09168324619531631,
          "4": -0.170011967420578,
          "5": -0.35763800144195557,
          "6": -1.1305829286575317,
          "7": -1.373768925666809,
          "8": 0.07007026672363281,
          "9": -0.33781683444976807,
          "10": 0.09190502762794495
        }
      },
      "4": {
        "bias": -0.601026177406311,
        "weights": {
          "0": 0.16872785985469818,
          "1": 0.8837435841560364,
          "2": 1.175442099571228,
          "3": 0.1855725646018982,
          "4": -0.7998524308204651,
          "5": 0.663528561592102,
          "6": -0.005970792844891548,
          "7": 0.03448326513171196,
          "8": -0.9026690125465393,
          "9": 0.72648686170578,
          "10": 0.19467507302761078
        }
      },
      "5": {
        "bias": -1.1672563552856445,
        "weights": {
          "0": -0.6755150556564331,
          "1": 2.0875041484832764,
          "2": 1.9361546039581299,
          "3": 0.06580038368701935,
          "4": -1.1055556535720825,
          "5": 0.13897700607776642,
          "6": 2.3450567722320557,
          "7": 1.6607383489608765,
          "8": 0.6096238493919373,
          "9": -0.034134671092033386,
          "10": -0.020573368296027184
        }
      },
      "6": {
        "bias": 0.01345948874950409,
        "weights": {
          "0": 1.3274128437042236,
          "1": 5.2016377449035645,
          "2": 0.4338565468788147,
          "3": 0.00021183982607908547,
          "4": -0.025496700778603554,
          "5": -0.2822589874267578,
          "6": -0.15191955864429474,
          "7": -1.2480778694152832,
          "8": 0.9899039268493652,
          "9": -1.5235700607299805,
          "10": -0.2110864669084549
        }
      },
      "7": {
        "bias": 0.178874671459198,
        "weights": {
          "0": 0.04507751762866974,
          "1": 0.1894034743309021,
          "2": 0.8729942440986633,
          "3": -0.034147560596466064,
          "4": -0.12017180025577545,
          "5": 0.4569603204727173,
          "6": 0.4404825270175934,
          "7": 0.7346867322921753,
          "8": 0.1817437708377838,
          "9": -1.0992026329040527,
          "10": -0.3102053999900818
        }
      },
      "8": {
        "bias": 0.6222833395004272,
        "weights": {
          "0": 0.32680240273475647,
          "1": -1.1747232675552368,
          "2": 0.16924196481704712,
          "3": -0.08677913248538971,
          "4": 0.7837255597114563,
          "5": 0.3403566777706146,
          "6": 0.7189632058143616,
          "7": 0.11772490292787552,
          "8": 0.9258105754852295,
          "9": -0.003773974720388651,
          "10": -0.25561240315437317
        }
      },
      "9": {
        "bias": 0.6400826573371887,
        "weights": {
          "0": 0.09670532494783401,
          "1": -1.3396193981170654,
          "2": -1.3808534145355225,
          "3": 0.1011340320110321,
          "4": 0.3144446909427643,
          "5": -0.5402562022209167,
          "6": -0.9344578385353088,
          "7": -0.9201518297195435,
          "8": -0.009250268340110779,
          "9": -0.41434887051582336,
          "10": -0.07736583799123764
        }
      },
      "10": {
        "bias": -1.4480905532836914,
        "weights": {
          "0": -0.43932050466537476,
          "1": 4.959421634674072,
          "2": 0.228413388133049,
          "3": 0.03948556259274483,
          "4": -1.2812978029251099,
          "5": -0.35766151547431946,
          "6": -0.6387168169021606,
          "7": 0.08918178081512451,
          "8": 0.3649810254573822,
          "9": 0.1532573252916336,
          "10": -0.01561089139431715
        }
      },
      "11": {
        "bias": 0.039411332458257675,
        "weights": {
          "0": -0.843580961227417,
          "1": -2.4198012351989746,
          "2": -1.0819756984710693,
          "3": 0.1874420940876007,
          "4": -0.06389836966991425,
          "5": 0.11459282785654068,
          "6": -0.8607221841812134,
          "7": 0.8926975131034851,
          "8": 0.15272800624370575,
          "9": -0.8148323893547058,
          "10": -0.3695797920227051
        }
      },
      "12": {
        "bias": -1.0254544019699097,
        "weights": {
          "0": -0.9996322393417358,
          "1": 1.9726492166519165,
          "2": 2.0643556118011475,
          "3": 0.06664309650659561,
          "4": -0.8005619049072266,
          "5": 0.16287201642990112,
          "6": 2.227039337158203,
          "7": 1.7734819650650024,
          "8": 0.7352446913719177,
          "9": -0.11848998069763184,
          "10": 0.018247872591018677
        }
      },
      "13": {
        "bias": 0.29193246364593506,
        "weights": {
          "0": -0.25498583912849426,
          "1": -0.8916131854057312,
          "2": 0.09801719337701797,
          "3": 0.043698955327272415,
          "4": 0.38513872027397156,
          "5": 0.777184009552002,
          "6": 0.548049807548523,
          "7": -0.3641519546508789,
          "8": 0.639565646648407,
          "9": 1.0948586463928223,
          "10": -0.11855345219373703
        }
      },
      "14": {
        "bias": -0.6993192434310913,
        "weights": {
          "0": 1.1595019102096558,
          "1": 0.16890409588813782,
          "2": 1.3135467767715454,
          "3": 0.07887175679206848,
          "4": -0.47308772802352905,
          "5": 0.23028290271759033,
          "6": -0.41301819682121277,
          "7": 0.34831809997558594,
          "8": -1.1989257335662842,
          "9": 0.3386384844779968,
          "10": 0.017144130542874336
        }
      },
      "15": {
        "bias": 0.7325137853622437,
        "weights": {
          "0": 0.10008187592029572,
          "1": -0.397522509098053,
          "2": -2.793177604675293,
          "3": 0.03265815228223801,
          "4": 0.5622298121452332,
          "5": -2.0343565940856934,
          "6": -2.4606754779815674,
          "7": -0.050731077790260315,
          "8": -1.30774986743927,
          "9": -1.3860892057418823,
          "10": 0.06036549061536789
        }
      },
      "16": {
        "bias": 0.04301520809531212,
        "weights": {
          "0": -0.5851101875305176,
          "1": -3.1015625,
          "2": -1.2269930839538574,
          "3": -0.015737587586045265,
          "4": 0.2502104640007019,
          "5": 1.0124589204788208,
          "6": -0.8901086449623108,
          "7": 1.0050302743911743,
          "8": 0.811568558216095,
          "9": 0.10379094630479813,
          "10": 0.0428754948079586
        }
      },
      "17": {
        "bias": -0.42659857869148254,
        "weights": {
          "0": 0.2942698299884796,
          "1": 0.521946370601654,
          "2": 2.1141068935394287,
          "3": -0.1714049130678177,
          "4": -0.18372713029384613,
          "5": 0.6414899230003357,
          "6": 1.9081838130950928,
          "7": 1.6118488311767578,
          "8": 0.15043959021568298,
          "9": 0.39913123846054077,
          "10": -0.11594599485397339
        }
      },
      "18": {
        "bias": -1.1153794527053833,
        "weights": {
          "0": 0.32196781039237976,
          "1": 4.678096294403076,
          "2": 0.391071617603302,
          "3": -0.1050252616405487,
          "4": -1.180783987045288,
          "5": -0.7535584568977356,
          "6": -0.3643507659435272,
          "7": -0.34032464027404785,
          "8": -0.1807251274585724,
          "9": -0.1899581253528595,
          "10": 0.051009733229875565
        }
      },
      "19": {
        "bias": -0.23922637104988098,
        "weights": {
          "0": -0.08710401505231857,
          "1": 0.5497695207595825,
          "2": 0.5243745446205139,
          "3": -0.09820190072059631,
          "4": -0.20301543176174164,
          "5": -0.38467949628829956,
          "6": -0.21317680180072784,
          "7": 0.9157349467277527,
          "8": 0.4528891146183014,
          "9": -1.8113619089126587,
          "10": -0.25740864872932434
        }
      },
      "20": {
        "bias": -0.7284744381904602,
        "weights": {
          "0": -0.2271319329738617,
          "1": 1.264233946800232,
          "2": 2.4495086669921875,
          "3": -0.1304272562265396,
          "4": -0.6914620399475098,
          "5": 0.5067948698997498,
          "6": 2.1503498554229736,
          "7": 0.9174582958221436,
          "8": 1.3169019222259521,
          "9": 0.2848913073539734,
          "10": -0.018237756565213203
        }
      },
      "21": {
        "bias": 0.48318374156951904,
        "weights": {
          "0": 0.35693633556365967,
          "1": -0.9926867485046387,
          "2": -0.6209932565689087,
          "3": -0.17692002654075623,
          "4": 0.21186582744121552,
          "5": 0.27111929655075073,
          "6": 0.20458398759365082,
          "7": -0.8945187926292419,
          "8": 0.8029866814613342,
          "9": 0.41981226205825806,
          "10": -0.08619719743728638
        }
      },
      "22": {
        "bias": 0.7013030648231506,
        "weights": {
          "0": -0.013161263428628445,
          "1": -1.6125849485397339,
          "2": -0.8354398012161255,
          "3": -0.08058282732963562,
          "4": 0.624535083770752,
          "5": 0.10369780659675598,
          "6": -0.09694370627403259,
          "7": 0.15493854880332947,
          "8": 0.7616513967514038,
          "9": -0.2753525972366333,
          "10": 0.047143835574388504
        }
      },
      "23": {
        "bias": -0.27960729598999023,
        "weights": {
          "0": -0.27319449186325073,
          "1": 3.722193717956543,
          "2": 0.9123667478561401,
          "3": -0.08712189644575119,
          "4": -0.37543466687202454,
          "5": -0.08102520555257797,
          "6": 0.3966684341430664,
          "7": -0.7522841095924377,
          "8": -0.389309823513031,
          "9": 0.290640652179718,
          "10": -0.020375287160277367
        }
      },
      "24": {
        "bias": 0.42918333411216736,
        "weights": {
          "0": 0.04899996519088745,
          "1": -0.46206313371658325,
          "2": 0.24261468648910522,
          "3": -0.009878513403236866,
          "4": 0.2705347239971161,
          "5": 0.9949178695678711,
          "6": 0.7937045693397522,
          "7": 0.44583001732826233,
          "8": 0.5075179934501648,
          "9": -0.9597740769386292,
          "10": -0.24617408215999603
        }
      },
      "25": {
        "bias": -0.7542237043380737,
        "weights": {
          "0": -0.2534688413143158,
          "1": 3.736616611480713,
          "2": 0.8332306146621704,
          "3": 0.19583703577518463,
          "4": -0.5366367697715759,
          "5": -0.2953106760978699,
          "6": 0.08837775141000748,
          "7": -0.8514586091041565,
          "8": -0.1256173998117447,
          "9": 0.32851141691207886,
          "10": -0.01801702380180359
        }
      },
      "26": {
        "bias": 0.38798898458480835,
        "weights": {
          "0": 0.45466628670692444,
          "1": 3.7774507999420166,
          "2": 0.7901226878166199,
          "3": -0.0065698265098035336,
          "4": 0.3977578282356262,
          "5": 1.8063853979110718,
          "6": 0.01942090503871441,
          "7": 1.247714638710022,
          "8": 2.1280903816223145,
          "9": -2.581817626953125,
          "10": -0.9936181902885437
        }
      },
      "27": {
        "bias": 0.3286103308200836,
        "weights": {
          "0": 0.22410553693771362,
          "1": 3.9511985778808594,
          "2": 0.7181448936462402,
          "3": -0.13842235505580902,
          "4": 0.4529759883880615,
          "5": 1.8476214408874512,
          "6": -0.23500213027000427,
          "7": 1.8500492572784424,
          "8": 2.0559608936309814,
          "9": -2.4046688079833984,
          "10": -0.9965749382972717
        }
      },
      "28": {
        "bias": 0.2346271425485611,
        "weights": {
          "0": 0.6650208830833435,
          "1": -1.5646387338638306,
          "2": -0.3869484066963196,
          "3": 0.09481241554021835,
          "4": 0.42906254529953003,
          "5": 0.7096750140190125,
          "6": 0.17922137677669525,
          "7": -1.3417387008666992,
          "8": 0.4276837110519409,
          "9": 0.5946614742279053,
          "10": -0.11479198932647705
        }
      },
      "29": {
        "bias": 0.8813340067863464,
        "weights": {
          "0": -0.7780460715293884,
          "1": -2.183448314666748,
          "2": -0.8289341330528259,
          "3": -0.11101137101650238,
          "4": 0.9206074476242065,
          "5": 0.8151136040687561,
          "6": 0.1578710526227951,
          "7": -0.11394096910953522,
          "8": 0.7494782209396362,
          "9": 0.2778412699699402,
          "10": -0.023109717294573784
        }
      },
      "30": {
        "bias": -0.46839818358421326,
        "weights": {
          "0": 1.1613601446151733,
          "1": 2.525486946105957,
          "2": 0.8923056721687317,
          "3": -0.08265915513038635,
          "4": -0.5172518491744995,
          "5": -0.610451340675354,
          "6": 0.7001444101333618,
          "7": -0.8612449169158936,
          "8": -1.470490574836731,
          "9": -0.051442600786685944,
          "10": 0.05615838244557381
        }
      },
      "31": {
        "bias": -0.683454155921936,
        "weights": {
          "0": 0.8795972466468811,
          "1": 1.2248104810714722,
          "2": -0.2988188862800598,
          "3": -0.16340728104114532,
          "4": -0.5680841207504272,
          "5": -1.2360213994979858,
          "6": -0.661039412021637,
          "7": 0.7602225542068481,
          "8": -0.6827040910720825,
          "9": -1.3877849578857422,
          "10": 0.042098719626665115
        }
      },
      "32": {
        "bias": 0.47467148303985596,
        "weights": {
          "0": 0.006660593673586845,
          "1": -0.035022906959056854,
          "2": -0.4541763365268707,
          "3": -0.013242091983556747,
          "4": 0.49851807951927185,
          "5": -0.16181403398513794,
          "6": -0.1718117892742157,
          "7": -0.12031097710132599,
          "8": 0.7787980437278748,
          "9": -0.13655151426792145,
          "10": 0.09230081737041473
        }
      },
      "33": {
        "bias": 0.88426673412323,
        "weights": {
          "0": 0.04684589430689812,
          "1": -1.9368666410446167,
          "2": -1.2062839269638062,
          "3": 0.010503268800675869,
          "4": 0.7503564953804016,
          "5": -0.09098012745380402,
          "6": -0.6149232387542725,
          "7": -0.7742531895637512,
          "8": 0.21060296893119812,
          "9": -0.3762083947658539,
          "10": -0.029974183067679405
        }
      },
      "34": {
        "bias": 0.015786146745085716,
        "weights": {
          "0": 0.7418044805526733,
          "1": -1.1342132091522217,
          "2": -1.2630023956298828,
          "3": -0.047379270195961,
          "4": -0.1421087384223938,
          "5": -0.4024037718772888,
          "6": -0.7968980073928833,
          "7": -0.331621378660202,
          "8": -0.46800392866134644,
          "9": -0.3296303451061249,
          "10": 0.03666798397898674
        }
      },
      "35": {
        "bias": -0.38861769437789917,
        "weights": {
          "0": -0.18460163474082947,
          "1": 0.13421659171581268,
          "2": -0.6851206421852112,
          "3": 0.12379590421915054,
          "4": -0.6038910150527954,
          "5": -1.2228457927703857,
          "6": -0.18794429302215576,
          "7": -1.0970239639282227,
          "8": -1.3998900651931763,
          "9": 0.7843606472015381,
          "10": 0.3116057813167572
        }
      },
      "36": {
        "bias": -0.48616424202919006,
        "weights": {
          "0": -0.38978761434555054,
          "1": 0.0162823423743248,
          "2": -0.49257147312164307,
          "3": 0.08126077800989151,
          "4": -0.3394424319267273,
          "5": -0.8741653561592102,
          "6": -0.05547451227903366,
          "7": -1.2411047220230103,
          "8": -1.3776839971542358,
          "9": 1.3283910751342773,
          "10": 0.27719271183013916
        }
      },
      "37": {
        "bias": 0.2495216727256775,
        "weights": {
          "0": -1.3737024068832397,
          "1": -0.9825433492660522,
          "2": -0.7335907220840454,
          "3": 0.094747394323349,
          "4": 0.4341817796230316,
          "5": 1.3454046249389648,
          "6": -0.4635501503944397,
          "7": 0.6501477360725403,
          "8": 1.2244758605957031,
          "9": 0.4332369565963745,
          "10": -0.04061900079250336
        }
      },
      "38": {
        "bias": 0.20468756556510925,
        "weights": {
          "0": 0.39598360657691956,
          "1": -2.071669340133667,
          "2": -0.8529778122901917,
          "3": 0.17611074447631836,
          "4": 0.09055574238300323,
          "5": 0.5205550789833069,
          "6": -0.9859087467193604,
          "7": 0.3306881785392761,
          "8": 0.2988378405570984,
          "9": 0.2245016098022461,
          "10": -0.08062014728784561
        }
      },
      "39": {
        "bias": 0.640134871006012,
        "weights": {
          "0": 0.16105371713638306,
          "1": -1.5695081949234009,
          "2": -1.1751389503479004,
          "3": -0.0014632600359618664,
          "4": 0.7030153274536133,
          "5": -0.1942221075296402,
          "6": -1.182354211807251,
          "7": -1.0565993785858154,
          "8": 0.18503017723560333,
          "9": -0.5238213539123535,
          "10": -0.025588082149624825
        }
      },
      "40": {
        "bias": -0.46440961956977844,
        "weights": {
          "0": -0.1943368762731552,
          "1": 1.2253257036209106,
          "2": 0.033769816160202026,
          "3": -0.002529161050915718,
          "4": -0.6738128066062927,
          "5": -0.38179120421409607,
          "6": -0.29500389099121094,
          "7": 0.5439804792404175,
          "8": -0.774941086769104,
          "9": -0.8120939135551453,
          "10": 0.14832744002342224
        }
      },
      "41": {
        "bias": 0.052678320556879044,
        "weights": {
          "0": 0.5539475679397583,
          "1": 3.54414439201355,
          "2": 1.456713318824768,
          "3": -0.10676160454750061,
          "4": 0.050572577863931656,
          "5": -0.39551982283592224,
          "6": 1.3759822845458984,
          "7": -0.8572654724121094,
          "8": -1.0847829580307007,
          "9": -0.17919662594795227,
          "10": 0.06972658634185791
        }
      },
      "42": {
        "bias": -0.9290701150894165,
        "weights": {
          "0": -1.6814212799072266,
          "1": -0.5032163262367249,
          "2": -0.7483295202255249,
          "3": -0.1493881791830063,
          "4": -0.9373018741607666,
          "5": -1.8006610870361328,
          "6": -0.17788170278072357,
          "7": -1.431471347808838,
          "8": -1.4007196426391602,
          "9": 0.6472682356834412,
          "10": 0.15578849613666534
        }
      },
      "43": {
        "bias": -0.6403219103813171,
        "weights": {
          "0": 1.1976606845855713,
          "1": 0.4595401883125305,
          "2": 1.5406062602996826,
          "3": 0.0537569560110569,
          "4": -0.7021652460098267,
          "5": -0.22539936006069183,
          "6": -0.7950311899185181,
          "7": 1.2077960968017578,
          "8": -0.9450982809066772,
          "9": -0.3473502993583679,
          "10": 0.04003250226378441
        }
      },
      "44": {
        "bias": -1.0414212942123413,
        "weights": {
          "0": -1.243297815322876,
          "1": -0.5561242699623108,
          "2": -1.213269591331482,
          "3": 0.059954989701509476,
          "4": -0.9510802626609802,
          "5": -2.102090358734131,
          "6": -0.5773965120315552,
          "7": -1.8936970233917236,
          "8": -1.4996472597122192,
          "9": 0.21841247379779816,
          "10": 0.1824873983860016
        }
      },
      "45": {
        "bias": -1.0430418252944946,
        "weights": {
          "0": -0.7479620575904846,
          "1": 2.3385443687438965,
          "2": 2.699435234069824,
          "3": -0.13701686263084412,
          "4": -0.9246935844421387,
          "5": 0.3934202194213867,
          "6": 1.920696496963501,
          "7": 1.424314022064209,
          "8": 0.8062934875488281,
          "9": -0.3274354636669159,
          "10": 0.0002422872494207695
        }
      },
      "46": {
        "bias": 0.1255585104227066,
        "weights": {
          "0": -0.6232330799102783,
          "1": -0.7749649286270142,
          "2": -1.8525902032852173,
          "3": -0.17547723650932312,
          "4": 0.027685418725013733,
          "5": -0.4249628782272339,
          "6": -0.5131269693374634,
          "7": -1.9375263452529907,
          "8": 0.1769910752773285,
          "9": 0.06775403022766113,
          "10": 0.08643849194049835
        }
      },
      "47": {
        "bias": -0.186846062541008,
        "weights": {
          "0": 0.50699383020401,
          "1": 1.8121232986450195,
          "2": 1.5598039627075195,
          "3": -0.032301515340805054,
          "4": -0.10838308185338974,
          "5": -0.06829749792814255,
          "6": 0.7516571283340454,
          "7": -0.381113201379776,
          "8": -1.0189330577850342,
          "9": 0.03491351380944252,
          "10": -0.04030444845557213
        }
      },
      "48": {
        "bias": 0.7219046950340271,
        "weights": {
          "0": 0.015485687181353569,
          "1": -1.7012513875961304,
          "2": -1.3586691617965698,
          "3": 0.08037488162517548,
          "4": 0.9547265768051147,
          "5": -0.3688117563724518,
          "6": -1.0188406705856323,
          "7": -0.9357966780662537,
          "8": -0.08570349961519241,
          "9": -0.15062004327774048,
          "10": 0.034753017127513885
        }
      },
      "49": {
        "bias": -0.49958375096321106,
        "weights": {
          "0": 0.22569547593593597,
          "1": 1.8445441722869873,
          "2": 1.2024145126342773,
          "3": -0.07821972668170929,
          "4": -0.35115259885787964,
          "5": -0.8370496034622192,
          "6": 0.7661933898925781,
          "7": -0.4837995171546936,
          "8": -0.5258431434631348,
          "9": 0.2633013129234314,
          "10": 0.2692142724990845
        }
      }
    },
    {
      "0": {
        "bias": -0.12033265829086304,
        "weights": {
          "0": 2.231844663619995,
          "1": -0.07510066777467728,
          "2": 2.3376595973968506,
          "3": 0.03980621322989464,
          "4": -0.5066395401954651,
          "5": -0.4430984854698181,
          "6": -2.5099449157714844,
          "7": 0.9475438594818115,
          "8": 1.588394284248352,
          "9": -0.2104332447052002,
          "10": -0.7286936640739441,
          "11": 0.6549638509750366,
          "12": -0.6816789507865906,
          "13": 0.8377665281295776,
          "14": -0.23793162405490875,
          "15": 0.19002386927604675,
          "16": 0.4287402033805847,
          "17": -0.46931272745132446,
          "18": -0.32312265038490295,
          "19": 0.624599039554596,
          "20": -0.2047080546617508,
          "21": 0.6336796283721924,
          "22": 0.6353628635406494,
          "23": -0.6193743944168091,
          "24": 0.9109053015708923,
          "25": -0.3703133463859558,
          "26": -1.8200392723083496,
          "27": -1.971337914466858,
          "28": 0.6861321330070496,
          "29": 0.8825688362121582,
          "30": -0.08918900042772293,
          "31": -0.5029285550117493,
          "32": 0.44970428943634033,
          "33": 0.3536440432071686,
          "34": -0.035804059356451035,
          "35": -0.13513420522212982,
          "36": -0.04726226255297661,
          "37": 0.265994668006897,
          "38": 0.020084168761968613,
          "39": 0.05187138170003891,
          "40": -0.17601072788238525,
          "41": -0.6054658889770508,
          "42": 0.1082567647099495,
          "43": -0.24089571833610535,
          "44": 0.14097927510738373,
          "45": -1.244876742362976,
          "46": 1.0074872970581055,
          "47": -0.27991658449172974,
          "48": 0.1702689230442047,
          "49": -0.04819968342781067
        }
      },
      "1": {
        "bias": 0.03432590514421463,
        "weights": {
          "0": -2.0901756286621094,
          "1": -0.06046147644519806,
          "2": -1.900506615638733,
          "3": -0.23765315115451813,
          "4": 0.10523204505443573,
          "5": 0.4343016445636749,
          "6": 2.3928372859954834,
          "7": -0.8262998461723328,
          "8": -1.315047264099121,
          "9": -0.04058283939957619,
          "10": 0.9405840635299683,
          "11": -0.7075810432434082,
          "12": 0.6302347779273987,
          "13": -0.6582488417625427,
          "14": 0.187204971909523,
          "15": -0.5621702075004578,
          "16": -0.422986775636673,
          "17": 0.6751236915588379,
          "18": 0.261684775352478,
          "19": -0.22156372666358948,
          "20": -0.08403291553258896,
          "21": -0.20772302150726318,
          "22": -0.8745589256286621,
          "23": 0.5882238149642944,
          "24": -0.9746330976486206,
          "25": 0.416556179523468,
          "26": 1.3244251012802124,
          "27": 1.6269943714141846,
          "28": -0.583003044128418,
          "29": -0.9462162256240845,
          "30": 0.6784232258796692,
          "31": 0.18953870236873627,
          "32": -0.5953179597854614,
          "33": -0.12919342517852783,
          "34": -0.08778692781925201,
          "35": 0.01806851662695408,
          "36": -0.056606683880090714,
          "37": -0.4180387556552887,
          "38": 0.1682567149400711,
          "39": -0.2855830490589142,
          "40": 0.18647077679634094,
          "41": 0.9446870684623718,
          "42": -0.312065064907074,
          "43": 0.4358864724636078,
          "44": -0.31242835521698,
          "45": 0.8674896359443665,
          "46": -1.072736144065857,
          "47": 0.34877002239227295,
          "48": -0.06944671273231506,
          "49": 0.25171586871147156
        }
      },
      "2": {
        "bias": -0.16953682899475098,
        "weights": {
          "0": 2.511448383331299,
          "1": -0.16489261388778687,
          "2": 2.370231866836548,
          "3": -0.010451233014464378,
          "4": -0.3922731876373291,
          "5": -0.34893497824668884,
          "6": -2.305408000946045,
          "7": 0.9080772399902344,
          "8": 1.4401246309280396,
          "9": -0.16138529777526855,
          "10": -0.7243532538414001,
          "11": 0.5562220215797424,
          "12": -0.8324679732322693,
          "13": 0.7560902237892151,
          "14": -0.25599947571754456,
          "15": 0.5645942091941833,
          "16": 0.3879255950450897,
          "17": -0.45214858651161194,
          "18": -0.41667041182518005,
          "19": 0.7145095467567444,
          "20": -0.24957194924354553,
          "21": 0.5998618006706238,
          "22": 0.840707540512085,
          "23": -0.2900380790233612,
          "24": 0.8481858968734741,
          "25": -0.44797155261039734,
          "26": -1.7102161645889282,
          "27": -1.971908450126648,
          "28": 0.8732113242149353,
          "29": 0.8349669575691223,
          "30": -0.4022614657878876,
          "31": -0.3207661211490631,
          "32": 0.4869946241378784,
          "33": 0.23469489812850952,
          "34": -0.00707129156216979,
          "35": -0.22050487995147705,
          "36": -0.03422902897000313,
          "37": 0.26335999369621277,
          "38": 0.06072429195046425,
          "39": 0.017955753952264786,
          "40": -0.17157773673534393,
          "41": -0.3662223219871521,
          "42": 0.0911160409450531,
          "43": -0.16599759459495544,
          "44": 0.11312514543533325,
          "45": -1.057217001914978,
          "46": 0.6572296619415283,
          "47": -0.23493365943431854,
          "48": 0.002423700178042054,
          "49": -0.2819962799549103
        }
      },
      "3": {
        "bias": -0.10083138197660446,
        "weights": {
          "0": -2.275355100631714,
          "1": -0.44924798607826233,
          "2": -1.4644273519515991,
          "3": -0.40266966819763184,
          "4": 0.2953018546104431,
          "5": 0.5855454206466675,
          "6": 2.257542371749878,
          "7": -1.0422958135604858,
          "8": -1.202188491821289,
          "9": 0.23288494348526,
          "10": 1.1619678735733032,
          "11": -1.2264487743377686,
          "12": 0.6576690077781677,
          "13": -0.4709774851799011,
          "14": 0.4355829656124115,
          "15": -0.6536814570426941,
          "16": -0.680642306804657,
          "17": 0.7041000723838806,
          "18": 0.31332528591156006,
          "19": -0.5675277709960938,
          "20": 0.11727701872587204,
          "21": -0.2769020199775696,
          "22": -0.6957116723060608,
          "23": 0.7514871954917908,
          "24": -1.0769833326339722,
          "25": 0.8688529133796692,
          "26": 0.9853787422180176,
          "27": 1.2672524452209473,
          "28": -0.2533371150493622,
          "29": -1.0050987005233765,
          "30": 0.543510913848877,
          "31": 0.016706328839063644,
          "32": -0.4822489619255066,
          "33": -0.349386602640152,
          "34": 0.24404370784759521,
          "35": -0.2014809250831604,
          "36": -0.10421598702669144,
          "37": -0.2578224837779999,
          "38": 0.01892758347094059,
          "39": -0.6187687516212463,
          "40": 0.0043791308999061584,
          "41": 1.1488288640975952,
          "42": -0.3755255937576294,
          "43": 0.3326660394668579,
          "44": -0.25801530480384827,
          "45": 0.7100318074226379,
          "46": -1.0521024465560913,
          "47": 0.6133708953857422,
          "48": -0.1317761242389679,
          "49": 0.13679219782352448
        }
      },
      "4": {
        "bias": -0.13719210028648376,
        "weights": {
          "0": 2.224726438522339,
          "1": 0.12545804679393768,
          "2": 2.5577504634857178,
          "3": 0.10467296093702316,
          "4": -0.20258186757564545,
          "5": -0.397296667098999,
          "6": -2.241222620010376,
          "7": 0.5417547225952148,
          "8": 1.2100199460983276,
          "9": -0.027478590607643127,
          "10": -0.5560980439186096,
          "11": 0.4914574921131134,
          "12": -0.7358056306838989,
          "13": 0.6677601337432861,
          "14": -0.28270643949508667,
          "15": 0.4064379334449768,
          "16": 0.09276363998651505,
          "17": -0.581885814666748,
          "18": -0.3405912220478058,
          "19": 0.5735721588134766,
          "20": -0.411548376083374,
          "21": 0.7150449752807617,
          "22": 0.6293337941169739,
          "23": -0.3824957609176636,
          "24": 0.8987924456596375,
          "25": -0.4844319820404053,
          "26": -2.393918037414551,
          "27": -2.4955191612243652,
          "28": 1.0566275119781494,
          "29": 0.8837447166442871,
          "30": -0.09832315891981125,
          "31": -0.27764958143234253,
          "32": 0.5471692085266113,
          "33": 0.23812374472618103,
          "34": -0.1384434700012207,
          "35": -0.21636836230754852,
          "36": -0.32552385330200195,
          "37": 0.2283807396888733,
          "38": 0.022469045594334602,
          "39": 0.39450713992118835,
          "40": -0.25274109840393066,
          "41": -0.44447991251945496,
          "42": -0.17717286944389343,
          "43": -0.2694391906261444,
          "44": 0.1708056628704071,
          "45": -1.2577522993087769,
          "46": 0.6787541508674622,
          "47": -0.27829182147979736,
          "48": -0.044149596244096756,
          "49": -0.12298167496919632
        }
      },
      "5": {
        "bias": 0.1038288027048111,
        "weights": {
          "0": -2.317500591278076,
          "1": -0.16493864357471466,
          "2": -2.5208001136779785,
          "3": 0.04817887768149376,
          "4": 0.3680448830127716,
          "5": 0.4188252389431,
          "6": 2.175635576248169,
          "7": -0.8385595083236694,
          "8": -1.5708109140396118,
          "9": 0.12080221623182297,
          "10": 0.652286946773529,
          "11": -0.6501903533935547,
          "12": 0.8228681087493896,
          "13": -0.8835766315460205,
          "14": 0.1615074872970581,
          "15": -0.28528034687042236,
          "16": -0.26121729612350464,
          "17": 0.24616557359695435,
          "18": 0.3839574456214905,
          "19": -0.5421301126480103,
          "20": 0.3144853711128235,
          "21": -0.6010872721672058,
          "22": -0.5448219180107117,
          "23": 0.4781988263130188,
          "24": -0.8892812132835388,
          "25": 0.18629084527492523,
          "26": 1.6170039176940918,
          "27": 1.7017830610275269,
          "28": -0.9689875841140747,
          "29": -0.7017082571983337,
          "30": 0.4199175238609314,
          "31": 0.12768149375915527,
          "32": -0.2620563805103302,
          "33": -0.1267423927783966,
          "34": 0.0015200033085420728,
          "35": 0.26817774772644043,
          "36": 0.004164451267570257,
          "37": -0.3087601959705353,
          "38": -0.08016937226057053,
          "39": -0.13182412087917328,
          "40": 0.3491010069847107,
          "41": 0.42755112051963806,
          "42": -0.19457626342773438,
          "43": 0.1379619985818863,
          "44": -0.19270959496498108,
          "45": 0.7619333267211914,
          "46": -0.6019257307052612,
          "47": 0.39537009596824646,
          "48": -0.007398855406790972,
          "49": 0.2737910747528076
        }
      },
      "6": {
        "bias": -0.15918363630771637,
        "weights": {
          "0": -2.2269232273101807,
          "1": -0.3750564157962799,
          "2": -1.857598900794983,
          "3": -0.3633018434047699,
          "4": 0.4200255572795868,
          "5": 0.3437730371952057,
          "6": 2.42319393157959,
          "7": -0.8328319787979126,
          "8": -1.2950798273086548,
          "9": -0.09681601077318192,
          "10": 0.6046780347824097,
          "11": -0.6033372282981873,
          "12": 0.48132792115211487,
          "13": -0.6267528533935547,
          "14": 0.487283855676651,
          "15": -0.291577011346817,
          "16": -0.5810057520866394,
          "17": 0.7950610518455505,
          "18": 0.14805683493614197,
          "19": -0.28137773275375366,
          "20": 0.2529192268848419,
          "21": -0.12714068591594696,
          "22": -0.9492815732955933,
          "23": 0.6961893439292908,
          "24": -1.1029913425445557,
          "25": 0.41875582933425903,
          "26": 1.2166887521743774,
          "27": 1.4061462879180908,
          "28": -0.6609816551208496,
          "29": -0.831920862197876,
          "30": 0.7430277466773987,
          "31": 0.02930009737610817,
          "32": -0.5564051270484924,
          "33": -0.43865862488746643,
          "34": 0.3122575283050537,
          "35": -0.16339851915836334,
          "36": 0.164620503783226,
          "37": -0.4774920344352722,
          "38": -0.03580000251531601,
          "39": -0.21095621585845947,
          "40": 0.003870307467877865,
          "41": 0.8412848114967346,
          "42": -0.21039660274982452,
          "43": 0.4324937164783478,
          "44": -0.29967859387397766,
          "45": 0.9123744964599609,
          "46": -0.8718588352203369,
          "47": 0.6026349067687988,
          "48": -0.25490477681159973,
          "49": 0.3421081602573395
        }
      },
      "7": {
        "bias": -0.06644264608621597,
        "weights": {
          "0": 2.274484395980835,
          "1": 0.14587204158306122,
          "2": 2.1611874103546143,
          "3": 0.031075790524482727,
          "4": -0.41692090034484863,
          "5": -0.4505738914012909,
          "6": -2.2472119331359863,
          "7": 0.8868135809898376,
          "8": 1.2885956764221191,
          "9": 0.04529657959938049,
          "10": -0.6512526869773865,
          "11": 0.4590194821357727,
          "12": -0.7726731896400452,
          "13": 0.8165967464447021,
          "14": -0.2789852023124695,
          "15": 0.33773669600486755,
          "16": 0.4318839907646179,
          "17": -0.8046414256095886,
          "18": -0.20686867833137512,
          "19": 0.5057986378669739,
          "20": -0.17069654166698456,
          "21": 0.6464102864265442,
          "22": 0.8036226630210876,
          "23": -0.5993372797966003,
          "24": 0.9441829919815063,
          "25": -0.5245843529701233,
          "26": -2.1777610778808594,
          "27": -2.5540919303894043,
          "28": 0.6894552707672119,
          "29": 0.9726767539978027,
          "30": -0.45895296335220337,
          "31": -0.5776200890541077,
          "32": 0.4695203900337219,
          "33": 0.39632564783096313,
          "34": -0.2102998048067093,
          "35": -0.06317027658224106,
          "36": -0.1688186377286911,
          "37": 0.2504713237285614,
          "38": -0.15358713269233704,
          "39": 0.07375536113977432,
          "40": -0.24063770473003387,
          "41": -0.5214230418205261,
          "42": -0.1303626000881195,
          "43": -0.2594354450702667,
          "44": 0.08888305723667145,
          "45": -1.0911616086959839,
          "46": 0.996070921421051,
          "47": -0.3200426399707794,
          "48": 0.032846011221408844,
          "49": -0.09219147264957428
        }
      },
      "8": {
        "bias": -0.0671355202794075,
        "weights": {
          "0": -2.1838812828063965,
          "1": -0.06096789240837097,
          "2": -1.8513295650482178,
          "3": -0.3315846025943756,
          "4": 0.3779870271682739,
          "5": 0.5254500508308411,
          "6": 2.3238139152526855,
          "7": -0.49051231145858765,
          "8": -1.2682915925979614,
          "9": -0.12098481506109238,
          "10": 0.7609183192253113,
          "11": -0.636955201625824,
          "12": 0.3963480591773987,
          "13": -0.7130364775657654,
          "14": 0.34159398078918457,
          "15": -0.4503460228443146,
          "16": -0.502165675163269,
          "17": 0.6188444495201111,
          "18": 0.35132744908332825,
          "19": -0.17452383041381836,
          "20": 0.1813766211271286,
          "21": -0.5754650831222534,
          "22": -0.8759058713912964,
          "23": 0.5987588763237,
          "24": -0.8978292346000671,
          "25": 0.5591980814933777,
          "26": 1.9649766683578491,
          "27": 2.017552375793457,
          "28": -0.483477920293808,
          "29": -1.0765923261642456,
          "30": 0.606571614742279,
          "31": 0.39203473925590515,
          "32": -0.6057369709014893,
          "33": -0.2921631932258606,
          "34": 0.234629824757576,
          "35": -0.12248735129833221,
          "36": -0.05120643973350525,
          "37": -0.5022794008255005,
          "38": 0.2234293818473816,
          "39": -0.49345022439956665,
          "40": 0.19160091876983643,
          "41": 0.6885427236557007,
          "42": -0.10112244635820389,
          "43": 0.15577432513237,
          "44": -0.20500478148460388,
          "45": 1.1735690832138062,
          "46": -0.6676603555679321,
          "47": 0.6389651298522949,
          "48": -0.10595953464508057,
          "49": 0.18875634670257568
        }
      },
      "9": {
        "bias": 0.061104752123355865,
        "weights": {
          "0": 2.297515392303467,
          "1": 0.15170809626579285,
          "2": 2.0716018676757812,
          "3": 0.05429621413350105,
          "4": -0.2645407021045685,
          "5": -0.4229345917701721,
          "6": -2.3096444606781006,
          "7": 0.9018615484237671,
          "8": 1.392694354057312,
          "9": -0.046650391072034836,
          "10": -0.6753187775611877,
          "11": 0.7047597765922546,
          "12": -0.8401098251342773,
          "13": 0.9279257655143738,
          "14": -0.06426333636045456,
          "15": 0.5512663125991821,
          "16": 0.1461387723684311,
          "17": -0.6709585189819336,
          "18": -0.33619654178619385,
          "19": 0.6827136278152466,
          "20": -0.18447445333003998,
          "21": 0.6511784791946411,
          "22": 0.8710860013961792,
          "23": -0.4939330518245697,
          "24": 0.7994917035102844,
          "25": -0.43925023078918457,
          "26": -1.9161231517791748,
          "27": -1.796463966369629,
          "28": 0.6044293642044067,
          "29": 0.736981987953186,
          "30": -0.36557912826538086,
          "31": -0.39628738164901733,
          "32": 0.595306932926178,
          "33": 0.31801483035087585,
          "34": -0.20673373341560364,
          "35": -0.1916709989309311,
          "36": -0.22386054694652557,
          "37": 0.22015908360481262,
          "38": 0.27474716305732727,
          "39": 0.22260797023773193,
          "40": -0.20086923241615295,
          "41": -0.6392293572425842,
          "42": 0.037295062094926834,
          "43": -0.3057137727737427,
          "44": 0.20718811452388763,
          "45": -1.3073360919952393,
          "46": 0.9311420917510986,
          "47": -0.4134342074394226,
          "48": 0.057199351489543915,
          "49": -0.28544411063194275
        }
      },
      "10": {
        "bias": -0.14859306812286377,
        "weights": {
          "0": 2.4432473182678223,
          "1": -0.0032529525924474,
          "2": 2.459630250930786,
          "3": 0.1395116001367569,
          "4": -0.3430514633655548,
          "5": -0.7125776410102844,
          "6": -2.355341672897339,
          "7": 0.5906334519386292,
          "8": 1.4865813255310059,
          "9": 0.14395929872989655,
          "10": -0.7705428600311279,
          "11": 0.3219662010669708,
          "12": -0.6333770751953125,
          "13": 0.8117693066596985,
          "14": -0.14503690600395203,
          "15": 0.3087540864944458,
          "16": 0.19708678126335144,
          "17": -0.73822420835495,
          "18": -0.21868352591991425,
          "19": 0.4556505084037781,
          "20": -0.1013173833489418,
          "21": 0.6197741031646729,
          "22": 0.812594473361969,
          "23": -0.542374849319458,
          "24": 0.9140792489051819,
          "25": -0.4875412583351135,
          "26": -2.640507936477661,
          "27": -2.6200907230377197,
          "28": 0.8515164256095886,
          "29": 0.9711558222770691,
          "30": -0.26659220457077026,
          "31": -0.47667160630226135,
          "32": 0.35390692949295044,
          "33": 0.15116530656814575,
          "34": -0.16725586354732513,
          "35": -0.10072071105241776,
          "36": -0.09478431940078735,
          "37": 0.3702690601348877,
          "38": 0.19719864428043365,
          "39": 0.14564771950244904,
          "40": -0.42807671427726746,
          "41": -0.4685930609703064,
          "42": 0.10260631144046783,
          "43": -0.5670709013938904,
          "44": -0.0031325870659202337,
          "45": -1.046655297279358,
          "46": 0.9304311275482178,
          "47": -0.35068386793136597,
          "48": 0.11367623507976532,
          "49": -0.04418262839317322
        }
      },
      "11": {
        "bias": -0.27669477462768555,
        "weights": {
          "0": 2.3633503913879395,
          "1": 0.0023318978492170572,
          "2": 2.5768814086914062,
          "3": 0.1465229094028473,
          "4": -0.2713395059108734,
          "5": -0.5544178485870361,
          "6": -2.227039337158203,
          "7": 0.8384352326393127,
          "8": 1.2320846319198608,
          "9": -0.054738324135541916,
          "10": -0.807163655757904,
          "11": 0.19503474235534668,
          "12": -0.7186394929885864,
          "13": 0.5717920660972595,
          "14": -0.25681811571121216,
          "15": 0.5378942489624023,
          "16": 0.24201931059360504,
          "17": -0.5763738751411438,
          "18": -0.18736344575881958,
          "19": 0.18888521194458008,
          "20": -0.17049312591552734,
          "21": 0.5975275635719299,
          "22": 0.8391644954681396,
          "23": -0.4816259443759918,
          "24": 0.8308039307594299,
          "25": -0.5483186841011047,
          "26": -2.613027572631836,
          "27": -2.7479422092437744,
          "28": 1.0749610662460327,
          "29": 0.8400595784187317,
          "30": -0.26047825813293457,
          "31": -0.3743993043899536,
          "32": 0.5444638729095459,
          "33": 0.14839191734790802,
          "34": -0.13605521619319916,
          "35": -0.07012444734573364,
          "36": -0.1018558219075203,
          "37": 0.324469655752182,
          "38": 0.1240881159901619,
          "39": 0.2139301747083664,
          "40": -0.4441807270050049,
          "41": -0.3999248743057251,
          "42": -0.09423238784074783,
          "43": -0.406548410654068,
          "44": -0.030028972774744034,
          "45": -1.1547648906707764,
          "46": 1.0516197681427002,
          "47": -0.43651601672172546,
          "48": 0.19690392911434174,
          "49": -0.298875093460083
        }
      },
      "12": {
        "bias": 0.011583586223423481,
        "weights": {
          "0": -2.4458909034729004,
          "1": -0.10613870620727539,
          "2": -1.6751865148544312,
          "3": -0.3631950616836548,
          "4": 0.4630649983882904,
          "5": 0.5970761775970459,
          "6": 2.216841697692871,
          "7": -0.9981881976127625,
          "8": -1.261825680732727,
          "9": -0.1204787865281105,
          "10": 0.9072797894477844,
          "11": -0.9329356551170349,
          "12": 0.45025062561035156,
          "13": -0.35628142952919006,
          "14": 0.43980515003204346,
          "15": -0.3932931125164032,
          "16": -0.6765346527099609,
          "17": 0.7388736009597778,
          "18": 0.3590433597564697,
          "19": -0.22118261456489563,
          "20": 0.19119882583618164,
          "21": -0.1744120866060257,
          "22": -0.9199328422546387,
          "23": 0.6338730454444885,
          "24": -1.0447481870651245,
          "25": 0.40187254548072815,
          "26": 1.2952063083648682,
          "27": 1.579668641090393,
          "28": -0.6992801427841187,
          "29": -1.2026249170303345,
          "30": 0.6648760437965393,
          "31": 0.11987225711345673,
          "32": -0.6738647222518921,
          "33": -0.2990625500679016,
          "34": 0.39248228073120117,
          "35": -0.18533548712730408,
          "36": 0.06642529368400574,
          "37": -0.45873090624809265,
          "38": -0.25527364015579224,
          "39": -0.21668373048305511,
          "40": -0.09252355247735977,
          "41": 0.8946109414100647,
          "42": -0.4047434329986572,
          "43": 0.42609483003616333,
          "44": -0.0889088436961174,
          "45": 0.9681809544563293,
          "46": -0.9810712337493896,
          "47": 0.5083678364753723,
          "48": -0.014599182642996311,
          "49": 0.2742984890937805
        }
      },
      "13": {
        "bias": 0.00421307235956192,
        "weights": {
          "0": -2.151376724243164,
          "1": -0.23601840436458588,
          "2": -2.2681190967559814,
          "3": -0.3158067762851715,
          "4": 0.2767705023288727,
          "5": 0.5362180471420288,
          "6": 2.22510027885437,
          "7": -0.9181482791900635,
          "8": -1.3399887084960938,
          "9": 0.1315140277147293,
          "10": 0.6163893342018127,
          "11": -0.48558565974235535,
          "12": 0.49657484889030457,
          "13": -0.690635085105896,
          "14": 0.279593825340271,
          "15": -0.280215322971344,
          "16": -0.474589467048645,
          "17": 0.6826261281967163,
          "18": 0.3273220658302307,
          "19": -0.4012121558189392,
          "20": 0.20521901547908783,
          "21": -0.5724770426750183,
          "22": -0.5719372034072876,
          "23": 0.5042416453361511,
          "24": -0.8745571970939636,
          "25": 0.3485918343067169,
          "26": 1.797697901725769,
          "27": 2.1282312870025635,
          "28": -0.8315528631210327,
          "29": -0.8260958790779114,
          "30": 0.363903284072876,
          "31": 0.4126853942871094,
          "32": -0.43381717801094055,
          "33": -0.2475982904434204,
          "34": 0.09192513674497604,
          "35": 0.2021438479423523,
          "36": 0.0914229303598404,
          "37": -0.17186543345451355,
          "38": -0.11451481282711029,
          "39": -0.29441824555397034,
          "40": 0.10463478416204453,
          "41": 0.6137278079986572,
          "42": -0.2861998975276947,
          "43": 0.21414349973201752,
          "44": -0.26601386070251465,
          "45": 1.015564203262329,
          "46": -0.9376994967460632,
          "47": 0.5330668091773987,
          "48": -0.08088470995426178,
          "49": 0.15096522867679596
        }
      },
      "14": {
        "bias": -0.057356130331754684,
        "weights": {
          "0": -2.21874737739563,
          "1": -0.19477921724319458,
          "2": -1.7009453773498535,
          "3": -0.4135966897010803,
          "4": 0.4570643901824951,
          "5": 0.23504415154457092,
          "6": 2.1515390872955322,
          "7": -0.8965973854064941,
          "8": -1.44137704372406,
          "9": 0.18875151872634888,
          "10": 0.9106202721595764,
          "11": -0.8296679258346558,
          "12": 0.562015950679779,
          "13": -0.46015477180480957,
          "14": 0.36110252141952515,
          "15": -0.5635117888450623,
          "16": -0.614188015460968,
          "17": 0.48946383595466614,
          "18": 0.4345281720161438,
          "19": -0.3603450059890747,
          "20": 0.1860491931438446,
          "21": -0.1918237805366516,
          "22": -0.8387005925178528,
          "23": 0.7973998785018921,
          "24": -0.8546357750892639,
          "25": 0.38942113518714905,
          "26": 1.4589980840682983,
          "27": 1.5344902276992798,
          "28": -0.5983004570007324,
          "29": -1.0032655000686646,
          "30": 0.550184428691864,
          "31": 0.3116319179534912,
          "32": -0.508060097694397,
          "33": -0.33238908648490906,
          "34": -0.03762846812605858,
          "35": -0.02028251253068447,
          "36": 0.16453957557678223,
          "37": -0.3839738965034485,
          "38": -0.018561910837888718,
          "39": -0.5054329633712769,
          "40": 0.017783604562282562,
          "41": 0.9008271098136902,
          "42": -0.4158870577812195,
          "43": 0.278622567653656,
          "44": -0.27393752336502075,
          "45": 1.1141889095306396,
          "46": -0.9912957549095154,
          "47": 0.548492968082428,
          "48": -0.08152984082698822,
          "49": 0.3705517053604126
        }
      },
      "15": {
        "bias": 0.11204148083925247,
        "weights": {
          "0": 2.230473756790161,
          "1": -0.17306846380233765,
          "2": 2.442997455596924,
          "3": 0.12699735164642334,
          "4": -0.47486525774002075,
          "5": -0.480031281709671,
          "6": -2.5583412647247314,
          "7": 0.6838910579681396,
          "8": 1.438248634338379,
          "9": -0.15553054213523865,
          "10": -0.8288851976394653,
          "11": 0.43624716997146606,
          "12": -0.8673222064971924,
          "13": 0.8930426836013794,
          "14": -0.14525766670703888,
          "15": 0.39880847930908203,
          "16": 0.3547365963459015,
          "17": -0.3713494837284088,
          "18": -0.3174455761909485,
          "19": 0.6318130493164062,
          "20": -0.1391139030456543,
          "21": 0.5381471514701843,
          "22": 0.6701788902282715,
          "23": -0.32742804288864136,
          "24": 0.8686807155609131,
          "25": -0.27824923396110535,
          "26": -2.172774314880371,
          "27": -2.2136316299438477,
          "28": 1.0023081302642822,
          "29": 0.832720160484314,
          "30": -0.2275257706642151,
          "31": -0.5061889886856079,
          "32": 0.27811843156814575,
          "33": 0.06566987931728363,
          "34": -0.03593166545033455,
          "35": -0.25606369972229004,
          "36": -0.06300713866949081,
          "37": 0.041691768914461136,
          "38": -0.03308559209108353,
          "39": 0.2757134735584259,
          "40": -0.13624048233032227,
          "41": -0.40015915036201477,
          "42": -0.01822354644536972,
          "43": -0.3547196090221405,
          "44": 0.13502134382724762,
          "45": -0.9928746819496155,
          "46": 0.9260448217391968,
          "47": -0.3909050226211548,
          "48": 0.2107236236333847,
          "49": -0.2127426117658615
        }
      },
      "16": {
        "bias": -0.10124721378087997,
        "weights": {
          "0": 2.411503553390503,
          "1": 0.047996725887060165,
          "2": 2.3601202964782715,
          "3": 0.24228832125663757,
          "4": -0.2347749024629593,
          "5": -0.5141074061393738,
          "6": -2.472233533859253,
          "7": 0.7787863612174988,
          "8": 1.5664432048797607,
          "9": 0.05975903943181038,
          "10": -0.4833488166332245,
          "11": 0.6790304183959961,
          "12": -0.770208477973938,
          "13": 0.7348710298538208,
          "14": -0.1732974350452423,
          "15": 0.34220436215400696,
          "16": 0.3209950923919678,
          "17": -0.5732108354568481,
          "18": -0.41694384813308716,
          "19": 0.6095432043075562,
          "20": -0.2179172933101654,
          "21": 0.5802457928657532,
          "22": 0.7194305062294006,
          "23": -0.22523345053195953,
          "24": 1.2146739959716797,
          "25": -0.42519596219062805,
          "26": -1.6848690509796143,
          "27": -1.7818652391433716,
          "28": 0.6810795068740845,
          "29": 0.6614773869514465,
          "30": -0.3001824915409088,
          "31": -0.389133483171463,
          "32": 0.3868016302585602,
          "33": 0.1910746991634369,
          "34": -0.052781786769628525,
          "35": -0.22166948020458221,
          "36": -0.021637337282299995,
          "37": 0.06378363072872162,
          "38": 0.26884981989860535,
          "39": 0.3474334478378296,
          "40": -0.1300395429134369,
          "41": -0.39653095602989197,
          "42": -0.15191173553466797,
          "43": -0.49973323941230774,
          "44": 0.01080187875777483,
          "45": -1.0136154890060425,
          "46": 0.6873902082443237,
          "47": -0.36030343174934387,
          "48": 0.1408495306968689,
          "49": -0.19159801304340363
        }
      },
      "17": {
        "bias": -0.07722565531730652,
        "weights": {
          "0": -2.2692291736602783,
          "1": -0.07049486041069031,
          "2": -2.2431552410125732,
          "3": -0.07377008348703384,
          "4": 0.261025995016098,
          "5": 0.6395767331123352,
          "6": 2.3133277893066406,
          "7": -0.8868001103401184,
          "8": -1.3449773788452148,
          "9": 0.014764845371246338,
          "10": 0.7048707604408264,
          "11": -0.8194515109062195,
          "12": 0.701564371585846,
          "13": -0.6952454447746277,
          "14": 0.3521479070186615,
          "15": -0.4807385504245758,
          "16": -0.2581048905849457,
          "17": 0.4848722517490387,
          "18": 0.10370334982872009,
          "19": -0.4621477723121643,
          "20": 0.11891467869281769,
          "21": -0.5993096828460693,
          "22": -0.9009538888931274,
          "23": 0.6437888145446777,
          "24": -1.0116323232650757,
          "25": 0.4844815135002136,
          "26": 1.7385027408599854,
          "27": 1.836240530014038,
          "28": -0.8891257643699646,
          "29": -0.8387894034385681,
          "30": 0.4561745226383209,
          "31": 0.359658807516098,
          "32": -0.2944229543209076,
          "33": -0.24139218032360077,
          "34": 0.2192908674478531,
          "35": 0.10315434634685516,
          "36": -0.009176785126328468,
          "37": -0.196365624666214,
          "38": -0.1528913825750351,
          "39": -0.15979650616645813,
          "40": 0.12006083130836487,
          "41": 0.4800874590873718,
          "42": -0.23285019397735596,
          "43": 0.26576685905456543,
          "44": -0.2075403332710266,
          "45": 0.8619827032089233,
          "46": -0.6971797943115234,
          "47": 0.17874030768871307,
          "48": -0.18854740262031555,
          "49": 0.2454703152179718
        }
      },
      "18": {
        "bias": 0.05199786648154259,
        "weights": {
          "0": -2.2567265033721924,
          "1": -0.04450486972928047,
          "2": -2.1898369789123535,
          "3": -0.39472827315330505,
          "4": 0.3431275188922882,
          "5": 0.5179086923599243,
          "6": 2.353010654449463,
          "7": -0.5744434595108032,
          "8": -1.2051228284835815,
          "9": 0.044349852949380875,
          "10": 0.6839632987976074,
          "11": -0.6663963198661804,
          "12": 0.5896680951118469,
          "13": -0.7766171097755432,
          "14": 0.08366460353136063,
          "15": -0.4911048710346222,
          "16": -0.5395292043685913,
          "17": 0.4913308620452881,
          "18": 0.20973412692546844,
          "19": -0.30950894951820374,
          "20": 0.1668296605348587,
          "21": -0.6984302401542664,
          "22": -0.602668821811676,
          "23": 0.5701098442077637,
          "24": -1.0179532766342163,
          "25": 0.5431927442550659,
          "26": 1.7656712532043457,
          "27": 2.167570114135742,
          "28": -0.6179976463317871,
          "29": -0.9125200510025024,
          "30": 0.36567336320877075,
          "31": 0.1787203550338745,
          "32": -0.44067129492759705,
          "33": -0.1348041146993637,
          "34": -0.022774484008550644,
          "35": 0.024001531302928925,
          "36": 0.23451925814151764,
          "37": -0.19714920222759247,
          "38": -0.1058526560664177,
          "39": -0.2838877737522125,
          "40": 0.25235244631767273,
          "41": 0.5224011540412903,
          "42": -0.15064458549022675,
          "43": 0.436217337846756,
          "44": -0.11917716264724731,
          "45": 1.1433581113815308,
          "46": -1.0377788543701172,
          "47": 0.3922975957393646,
          "48": -0.26221299171447754,
          "49": 0.14193131029605865
        }
      },
      "19": {
        "bias": -0.10251714289188385,
        "weights": {
          "0": 2.4270589351654053,
          "1": 0.15113040804862976,
          "2": 2.1785695552825928,
          "3": 0.19880671799182892,
          "4": -0.26828286051750183,
          "5": -0.645890474319458,
          "6": -2.126835823059082,
          "7": 1.0062967538833618,
          "8": 1.2846624851226807,
          "9": -0.004157231654971838,
          "10": -0.6579189896583557,
          "11": 0.5429375171661377,
          "12": -0.8498110771179199,
          "13": 0.6911328434944153,
          "14": -0.21492697298526764,
          "15": 0.5981165170669556,
          "16": 0.4002327620983124,
          "17": -0.7768219709396362,
          "18": -0.19439972937107086,
          "19": 0.5644251704216003,
          "20": -0.1298031508922577,
          "21": 0.5598375797271729,
          "22": 0.8926732540130615,
          "23": -0.4417929947376251,
          "24": 0.8188563585281372,
          "25": -0.3882254362106323,
          "26": -1.9631109237670898,
          "27": -2.0540170669555664,
          "28": 0.7742595672607422,
          "29": 1.0311487913131714,
          "30": -0.29888519644737244,
          "31": -0.490879088640213,
          "32": 0.37947365641593933,
          "33": 0.13750891387462616,
          "34": -0.15821917355060577,
          "35": -0.020380843430757523,
          "36": -0.07942910492420197,
          "37": 0.02810959331691265,
          "38": -0.05009802430868149,
          "39": 0.1299421340227127,
          "40": -0.20200172066688538,
          "41": -0.5694698095321655,
          "42": -0.09615802019834518,
          "43": -0.2334495186805725,
          "44": -0.022498076781630516,
          "45": -1.270431637763977,
          "46": 0.964547872543335,
          "47": -0.3942784070968628,
          "48": 0.34218084812164307,
          "49": -0.0803409144282341
        }
      },
      "20": {
        "bias": -0.17738406360149384,
        "weights": {
          "0": 2.4029042720794678,
          "1": 0.2114631086587906,
          "2": 2.361205816268921,
          "3": 0.25741350650787354,
          "4": -0.3920029103755951,
          "5": -0.5248948335647583,
          "6": -2.2271738052368164,
          "7": 0.7965438961982727,
          "8": 1.4042539596557617,
          "9": -0.06128966808319092,
          "10": -0.6813353300094604,
          "11": 0.37263306975364685,
          "12": -0.5600690841674805,
          "13": 0.7729823589324951,
          "14": -0.43434983491897583,
          "15": 0.5573665499687195,
          "16": 0.39089974761009216,
          "17": -0.6150297522544861,
          "18": -0.18797393143177032,
          "19": 0.3481723666191101,
          "20": -0.26795321702957153,
          "21": 0.7162808775901794,
          "22": 0.6055648326873779,
          "23": -0.3180621564388275,
          "24": 0.8755833506584167,
          "25": -0.31216099858283997,
          "26": -2.453770875930786,
          "27": -2.3805861473083496,
          "28": 0.8418275713920593,
          "29": 0.7876593470573425,
          "30": -0.3803641200065613,
          "31": -0.23327982425689697,
          "32": 0.41002777218818665,
          "33": 0.2880971133708954,
          "34": 0.010801483877003193,
          "35": -0.26802152395248413,
          "36": -0.0786154642701149,
          "37": 0.14033611118793488,
          "38": 0.027671193704009056,
          "39": 0.12022712081670761,
          "40": -0.19561009109020233,
          "41": -0.3812713623046875,
          "42": 0.19032754004001617,
          "43": -0.52960205078125,
          "44": 0.1965760886669159,
          "45": -1.2082433700561523,
          "46": 0.9662542343139648,
          "47": -0.23871272802352905,
          "48": 0.16085472702980042,
          "49": -0.15697525441646576
        }
      },
      "21": {
        "bias": -0.12998390197753906,
        "weights": {
          "0": 2.3589274883270264,
          "1": -0.18074722588062286,
          "2": 2.3990418910980225,
          "3": 0.21101243793964386,
          "4": -0.4371947646141052,
          "5": -0.6669148206710815,
          "6": -2.333293914794922,
          "7": 0.5320324897766113,
          "8": 1.4308816194534302,
          "9": 0.15253011882305145,
          "10": -0.5753880143165588,
          "11": 0.286894828081131,
          "12": -0.6873800754547119,
          "13": 0.8849890232086182,
          "14": -0.12393081188201904,
          "15": 0.3114725649356842,
          "16": 0.22964982688426971,
          "17": -0.3710346817970276,
          "18": -0.12692007422447205,
          "19": 0.31094083189964294,
          "20": -0.3298378884792328,
          "21": 0.8448069095611572,
          "22": 0.6679267883300781,
          "23": -0.6586322784423828,
          "24": 0.9787948131561279,
          "25": -0.4194640517234802,
          "26": -2.457214832305908,
          "27": -2.7829430103302,
          "28": 0.7579120993614197,
          "29": 0.934316873550415,
          "30": -0.11965367197990417,
          "31": -0.3999197483062744,
          "32": 0.4086325168609619,
          "33": 0.34850195050239563,
          "34": 0.08720182627439499,
          "35": -0.3763161897659302,
          "36": -0.10519777238368988,
          "37": 0.2058597207069397,
          "38": -0.09873252362012863,
          "39": 0.4111991226673126,
          "40": -0.2523788511753082,
          "41": -0.33022189140319824,
          "42": 0.13128042221069336,
          "43": -0.3717157244682312,
          "44": 0.16703829169273376,
          "45": -1.052752137184143,
          "46": 0.6887947916984558,
          "47": -0.4647466540336609,
          "48": -0.03724846616387367,
          "49": -0.28456753492355347
        }
      },
      "22": {
        "bias": -0.14710837602615356,
        "weights": {
          "0": -2.3129498958587646,
          "1": -0.19576793909072876,
          "2": -2.1330959796905518,
          "3": -0.3460051119327545,
          "4": 0.4333178699016571,
          "5": 0.532283365726471,
          "6": 2.268319606781006,
          "7": -1.0578972101211548,
          "8": -1.3514435291290283,
          "9": 0.008278090506792068,
          "10": 0.6971273422241211,
          "11": -0.8753718137741089,
          "12": 0.8457977771759033,
          "13": -0.5718241930007935,
          "14": 0.3239549398422241,
          "15": -0.43027985095977783,
          "16": -0.21759235858917236,
          "17": 0.3032555878162384,
          "18": 0.41125261783599854,
          "19": -0.47199565172195435,
          "20": 0.05679773539304733,
          "21": -0.5704026818275452,
          "22": -0.6076727509498596,
          "23": 0.3116130232810974,
          "24": -0.7281808853149414,
          "25": 0.5608441233634949,
          "26": 1.5784821510314941,
          "27": 1.7102056741714478,
          "28": -0.5754019618034363,
          "29": -0.99952632188797,
          "30": 0.22716601192951202,
          "31": 0.1767287254333496,
          "32": -0.3873704969882965,
          "33": -0.2767724394798279,
          "34": 0.23425348103046417,
          "35": -0.040511664003133774,
          "36": 0.25776639580726624,
          "37": -0.23778894543647766,
          "38": -0.03751574084162712,
          "39": -0.2009652853012085,
          "40": 0.1861668974161148,
          "41": 0.5300967693328857,
          "42": -0.008653836324810982,
          "43": 0.3836395740509033,
          "44": -0.20340770483016968,
          "45": 0.9279714226722717,
          "46": -0.9287305474281311,
          "47": 0.3853551149368286,
          "48": -0.21307481825351715,
          "49": 0.18716315925121307
        }
      },
      "23": {
        "bias": 0.15001772344112396,
        "weights": {
          "0": 2.261387348175049,
          "1": -0.07192867994308472,
          "2": 2.219054698944092,
          "3": 0.13513045012950897,
          "4": -0.4936893880367279,
          "5": -0.33095550537109375,
          "6": -2.203263759613037,
          "7": 0.8989858031272888,
          "8": 1.3543121814727783,
          "9": -0.07659050077199936,
          "10": -0.8157374858856201,
          "11": 0.6482310891151428,
          "12": -0.5831785202026367,
          "13": 0.5737183690071106,
          "14": -0.10388103127479553,
          "15": 0.6064416170120239,
          "16": 0.11246541142463684,
          "17": -0.6211943626403809,
          "18": -0.1029697135090828,
          "19": 0.5320013761520386,
          "20": -0.12462283670902252,
          "21": 0.5556458234786987,
          "22": 0.8874644637107849,
          "23": -0.6868165731430054,
          "24": 0.6032565236091614,
          "25": -0.45075857639312744,
          "26": -2.073526620864868,
          "27": -2.2487010955810547,
          "28": 0.7917935848236084,
          "29": 0.7695174813270569,
          "30": -0.4023915231227875,
          "31": -0.5193030834197998,
          "32": 0.4422968626022339,
          "33": 0.06839976459741592,
          "34": -0.17468759417533875,
          "35": -0.26032784581184387,
          "36": -0.02493666298687458,
          "37": 0.25779449939727783,
          "38": -0.1626427322626114,
          "39": 0.22648397088050842,
          "40": -0.37169384956359863,
          "41": -0.6632077097892761,
          "42": 0.23391641676425934,
          "43": -0.2598297894001007,
          "44": -0.09101174771785736,
          "45": -1.134313941001892,
          "46": 0.8489016890525818,
          "47": -0.3302018642425537,
          "48": -0.02058110572397709,
          "49": 0.020113149657845497
        }
      },
      "24": {
        "bias": -0.16378626227378845,
        "weights": {
          "0": 2.333615303039551,
          "1": -0.058150190860033035,
          "2": 2.274430274963379,
          "3": 0.1438070684671402,
          "4": -0.3750839829444885,
          "5": -0.585198163986206,
          "6": -2.402186393737793,
          "7": 0.7362866401672363,
          "8": 1.3843464851379395,
          "9": 0.042802777141332626,
          "10": -0.5026023983955383,
          "11": 0.4227812588214874,
          "12": -0.561601996421814,
          "13": 0.7147235870361328,
          "14": -0.3682396411895752,
          "15": 0.6161207556724548,
          "16": 0.49855801463127136,
          "17": -0.38036876916885376,
          "18": -0.345706045627594,
          "19": 0.22196978330612183,
          "20": -0.40405982732772827,
          "21": 0.6214141249656677,
          "22": 0.881813645362854,
          "23": -0.44408658146858215,
          "24": 0.9718684554100037,
          "25": -0.46049416065216064,
          "26": -2.2495641708374023,
          "27": -2.071636438369751,
          "28": 0.6955888867378235,
          "29": 0.9474325776100159,
          "30": -0.37305253744125366,
          "31": -0.4431965947151184,
          "32": 0.5758591294288635,
          "33": 0.2356424629688263,
          "34": -0.12922357022762299,
          "35": -0.07001380622386932,
          "36": -0.3067477345466614,
          "37": 0.33394932746887207,
          "38": 0.05230528116226196,
          "39": 0.3362388610839844,
          "40": -0.31478869915008545,
          "41": -0.529293417930603,
          "42": 0.07372423261404037,
          "43": -0.1884671300649643,
          "44": 0.17300361394882202,
          "45": -1.1817724704742432,
          "46": 0.6780932545661926,
          "47": -0.20738109946250916,
          "48": 0.05552825331687927,
          "49": -0.17360666394233704
        }
      },
      "25": {
        "bias": 0.03061070293188095,
        "weights": {
          "0": -2.2439029216766357,
          "1": -0.349094033241272,
          "2": -1.7650774717330933,
          "3": -0.19013096392154694,
          "4": 0.5732406973838806,
          "5": 0.35916468501091003,
          "6": 2.2814900875091553,
          "7": -0.7692313194274902,
          "8": -1.39210045337677,
          "9": 0.14444579184055328,
          "10": 0.6075178980827332,
          "11": -0.7988572120666504,
          "12": 0.6299371719360352,
          "13": -0.6332618594169617,
          "14": 0.32903385162353516,
          "15": -0.5384994745254517,
          "16": -0.5805487036705017,
          "17": 0.5812757611274719,
          "18": 0.14012743532657623,
          "19": -0.5137751698493958,
          "20": 0.32972007989883423,
          "21": -0.5358350276947021,
          "22": -0.974311888217926,
          "23": 0.7210921049118042,
          "24": -0.9012431502342224,
          "25": 0.4941917657852173,
          "26": 1.162856936454773,
          "27": 1.504371166229248,
          "28": -0.4821833074092865,
          "29": -1.0887254476547241,
          "30": 0.5078185796737671,
          "31": 0.2512620985507965,
          "32": -0.3360259532928467,
          "33": -0.37175852060317993,
          "34": 0.27409979701042175,
          "35": 0.061197832226753235,
          "36": 0.0566600002348423,
          "37": -0.34198835492134094,
          "38": -0.07139827311038971,
          "39": -0.5336124300956726,
          "40": 0.00561683950945735,
          "41": 0.7653352618217468,
          "42": -0.34727242588996887,
          "43": 0.1373949497938156,
          "44": -0.2473633736371994,
          "45": 1.0962339639663696,
          "46": -0.8304833769798279,
          "47": 0.6602029800415039,
          "48": -0.21705667674541473,
          "49": 0.2964872121810913
        }
      },
      "26": {
        "bias": -0.30294230580329895,
        "weights": {
          "0": -2.0581772327423096,
          "1": -0.3084040880203247,
          "2": -1.462796688079834,
          "3": -0.32659780979156494,
          "4": 0.3660081624984741,
          "5": 0.46573129296302795,
          "6": 2.33012056350708,
          "7": -0.8069524765014648,
          "8": -1.4205718040466309,
          "9": -0.028340358287096024,
          "10": 1.1135746240615845,
          "11": -0.9926618933677673,
          "12": 0.5365403294563293,
          "13": -0.5700684785842896,
          "14": 0.5781314373016357,
          "15": -0.4294169545173645,
          "16": -0.5031730532646179,
          "17": 0.559504508972168,
          "18": 0.618277370929718,
          "19": -0.19392313063144684,
          "20": 0.3251042068004608,
          "21": -0.17135478556156158,
          "22": -0.9886348843574524,
          "23": 0.6001743078231812,
          "24": -0.8029845356941223,
          "25": 0.8256305456161499,
          "26": 1.209682583808899,
          "27": 1.292663812637329,
          "28": -0.4132141172885895,
          "29": -0.7545875310897827,
          "30": 0.5469366908073425,
          "31": -0.13654223084449768,
          "32": -0.6098766326904297,
          "33": -0.4386216998100281,
          "34": 0.0048277187161147594,
          "35": 0.09206440299749374,
          "36": -0.08123831450939178,
          "37": -0.3036317527294159,
          "38": -0.11579203605651855,
          "39": -0.6444975733757019,
          "40": 0.07786563038825989,
          "41": 1.0679616928100586,
          "42": -0.4335651695728302,
          "43": 0.23712283372879028,
          "44": -0.38362669944763184,
          "45": 0.8355812430381775,
          "46": -1.132462739944458,
          "47": 0.616353452205658,
          "48": -0.45103931427001953,
          "49": 0.3772573471069336
        }
      },
      "27": {
        "bias": -0.1899033486843109,
        "weights": {
          "0": 2.576322317123413,
          "1": 0.19293113052845,
          "2": 2.5189971923828125,
          "3": 0.03954160958528519,
          "4": -0.38607391715049744,
          "5": -0.6374989748001099,
          "6": -2.2245166301727295,
          "7": 0.7330737709999084,
          "8": 1.2960954904556274,
          "9": -0.13514097034931183,
          "10": -0.5276457071304321,
          "11": 0.6342238783836365,
          "12": -0.6424548625946045,
          "13": 0.6744944453239441,
          "14": -0.2937532365322113,
          "15": 0.24729497730731964,
          "16": 0.1871214061975479,
          "17": -0.7278232574462891,
          "18": -0.19900847971439362,
          "19": 0.4337545335292816,
          "20": -0.3768865168094635,
          "21": 0.5633974671363831,
          "22": 0.7443201541900635,
          "23": -0.6365094780921936,
          "24": 0.7580959796905518,
          "25": -0.26430946588516235,
          "26": -2.1797244548797607,
          "27": -2.463646411895752,
          "28": 0.913749635219574,
          "29": 0.949333906173706,
          "30": -0.17495448887348175,
          "31": -0.5335689783096313,
          "32": 0.5643433928489685,
          "33": 0.41829055547714233,
          "34": -0.16166633367538452,
          "35": -0.0645262748003006,
          "36": -0.15831878781318665,
          "37": 0.2595408856868744,
          "38": 0.14946234226226807,
          "39": 0.35334497690200806,
          "40": -0.18692728877067566,
          "41": -0.4406163692474365,
          "42": 0.010646551847457886,
          "43": -0.34332871437072754,
          "44": -0.12084116786718369,
          "45": -1.2004642486572266,
          "46": 0.7874980568885803,
          "47": -0.3854493796825409,
          "48": 0.1394144594669342,
          "49": -0.004238254390656948
        }
      },
      "28": {
        "bias": 0.0731138363480568,
        "weights": {
          "0": -2.254282236099243,
          "1": -0.1033952608704567,
          "2": -2.350461959838867,
          "3": -0.3042965531349182,
          "4": 0.19261698424816132,
          "5": 0.2989620566368103,
          "6": 2.475053310394287,
          "7": -0.7817379236221313,
          "8": -1.494037389755249,
          "9": 0.08562073856592178,
          "10": 0.7862035632133484,
          "11": -0.5791963934898376,
          "12": 0.6125584840774536,
          "13": -0.714688777923584,
          "14": 0.19021159410476685,
          "15": -0.5380109548568726,
          "16": -0.21471872925758362,
          "17": 0.626049280166626,
          "18": 0.2250535488128662,
          "19": -0.6363010406494141,
          "20": 0.021440988406538963,
          "21": -0.6399728655815125,
          "22": -0.8963249921798706,
          "23": 0.3958054482936859,
          "24": -1.061382532119751,
          "25": 0.25762030482292175,
          "26": 1.5888112783432007,
          "27": 1.8975738286972046,
          "28": -0.5596582293510437,
          "29": -0.795364499092102,
          "30": 0.3799457252025604,
          "31": 0.3243694007396698,
          "32": -0.234190434217453,
          "33": -0.3347250819206238,
          "34": 0.04732126370072365,
          "35": 0.1017092764377594,
          "36": -0.07431788742542267,
          "37": -0.05867733433842659,
          "38": 0.04645766690373421,
          "39": -0.09010738134384155,
          "40": 0.2981966435909271,
          "41": 0.525043249130249,
          "42": -0.13612434267997742,
          "43": 0.427835613489151,
          "44": -0.31128475069999695,
          "45": 0.828832745552063,
          "46": -0.6618832945823669,
          "47": 0.41100120544433594,
          "48": -0.07400783151388168,
          "49": 0.3539872467517853
        }
      },
      "29": {
        "bias": -0.1936318576335907,
        "weights": {
          "0": -2.4060373306274414,
          "1": -0.35582879185676575,
          "2": -1.6493778228759766,
          "3": -0.47900497913360596,
          "4": 0.4009983539581299,
          "5": 0.33209770917892456,
          "6": 2.2931554317474365,
          "7": -0.836982786655426,
          "8": -1.0460939407348633,
          "9": 0.15355327725410461,
          "10": 0.9868918061256409,
          "11": -0.752271294593811,
          "12": 0.5695317387580872,
          "13": -0.4441094696521759,
          "14": 0.49039921164512634,
          "15": -0.6465138792991638,
          "16": -0.36183059215545654,
          "17": 0.7204733490943909,
          "18": 0.4572815001010895,
          "19": -0.2650741934776306,
          "20": 0.24917469918727875,
          "21": -0.4068140387535095,
          "22": -0.9818178415298462,
          "23": 0.776947557926178,
          "24": -0.9222639203071594,
          "25": 0.4783453643321991,
          "26": 1.4647537469863892,
          "27": 1.8646146059036255,
          "28": -0.7159764170646667,
          "29": -0.8074555397033691,
          "30": 0.7461708784103394,
          "31": 0.11375509947538376,
          "32": -0.4733297526836395,
          "33": -0.2049746960401535,
          "34": 0.08932135999202728,
          "35": 0.0545114129781723,
          "36": -0.009220319800078869,
          "37": -0.4615609347820282,
          "38": 0.2521134912967682,
          "39": -0.4870539605617523,
          "40": 0.22930142283439636,
          "41": 0.8320960402488708,
          "42": -0.35021457076072693,
          "43": 0.4567221403121948,
          "44": -0.40774333477020264,
          "45": 0.9869987964630127,
          "46": -0.9508765935897827,
          "47": 0.43936604261398315,
          "48": -0.2523133158683777,
          "49": 0.2834106385707855
        }
      },
      "30": {
        "bias": -0.14951838552951813,
        "weights": {
          "0": 2.362027645111084,
          "1": 0.07549232989549637,
          "2": 2.313436508178711,
          "3": -0.034104425460100174,
          "4": -0.31395989656448364,
          "5": -0.6328784227371216,
          "6": -2.274104356765747,
          "7": 0.7807462215423584,
          "8": 1.3591772317886353,
          "9": 0.08735369890928268,
          "10": -0.6923431754112244,
          "11": 0.5867918729782104,
          "12": -0.792995274066925,
          "13": 0.8430041670799255,
          "14": -0.09052839875221252,
          "15": 0.29926151037216187,
          "16": 0.16444428265094757,
          "17": -0.36972886323928833,
          "18": -0.33056026697158813,
          "19": 0.6277744174003601,
          "20": -0.39985308051109314,
          "21": 0.6154780387878418,
          "22": 0.8154102563858032,
          "23": -0.4093104600906372,
          "24": 0.9488399028778076,
          "25": -0.33464163541793823,
          "26": -1.5662446022033691,
          "27": -1.7611457109451294,
          "28": 0.7005615234375,
          "29": 0.9269700050354004,
          "30": -0.30473294854164124,
          "31": -0.3305904269218445,
          "32": 0.4763677418231964,
          "33": 0.057487186044454575,
          "34": -0.014895978383719921,
          "35": -0.31716620922088623,
          "36": -0.036817487329244614,
          "37": 0.3694837689399719,
          "38": 0.061806607991456985,
          "39": 0.2057410627603531,
          "40": -0.2800752520561218,
          "41": -0.5201919078826904,
          "42": 0.04904456436634064,
          "43": -0.2671964466571808,
          "44": 0.15491515398025513,
          "45": -0.8956790566444397,
          "46": 0.6440001130104065,
          "47": -0.24413816630840302,
          "48": 0.0847911536693573,
          "49": -0.22638945281505585
        }
      },
      "31": {
        "bias": 0.02011263184249401,
        "weights": {
          "0": 2.243683099746704,
          "1": -0.08462086319923401,
          "2": 2.4155101776123047,
          "3": -0.05751335248351097,
          "4": -0.3948483467102051,
          "5": -0.5450547933578491,
          "6": -2.0972402095794678,
          "7": 0.5665393471717834,
          "8": 1.3124699592590332,
          "9": -0.11770062893629074,
          "10": -0.7418155074119568,
          "11": 0.5489532947540283,
          "12": -0.6160531640052795,
          "13": 0.8321618437767029,
          "14": -0.3334638178348541,
          "15": 0.574897289276123,
          "16": 0.06301555782556534,
          "17": -0.6739492416381836,
          "18": -0.3902228772640228,
          "19": 0.5989943742752075,
          "20": -0.23770417273044586,
          "21": 0.6819236278533936,
          "22": 0.5203681588172913,
          "23": -0.49545565247535706,
          "24": 0.8196877241134644,
          "25": -0.2817068099975586,
          "26": -1.9913491010665894,
          "27": -2.301513195037842,
          "28": 0.8668116331100464,
          "29": 0.9497061967849731,
          "30": -0.32987216114997864,
          "31": -0.22046656906604767,
          "32": 0.3624618947505951,
          "33": 0.12076646089553833,
          "34": -0.10439823567867279,
          "35": -0.046146027743816376,
          "36": -0.032547689974308014,
          "37": 0.01180829294025898,
          "38": -0.00042828271398320794,
          "39": -0.005721946246922016,
          "40": -0.16668444871902466,
          "41": -0.4434077739715576,
          "42": -0.19141587615013123,
          "43": -0.38837090134620667,
          "44": -0.07685777544975281,
          "45": -1.0064085721969604,
          "46": 0.613030195236206,
          "47": -0.3734458088874817,
          "48": 0.23090553283691406,
          "49": 0.07002008706331253
        }
      },
      "32": {
        "bias": -0.12137934565544128,
        "weights": {
          "0": 2.2458953857421875,
          "1": -0.11446717381477356,
          "2": 2.475172996520996,
          "3": -0.07134413719177246,
          "4": -0.1135428324341774,
          "5": -0.6388532519340515,
          "6": -2.437690258026123,
          "7": 0.8507034778594971,
          "8": 1.406613826751709,
          "9": -0.04403401166200638,
          "10": -0.4986676275730133,
          "11": 0.4440508484840393,
          "12": -0.8478710055351257,
          "13": 0.7559734582901001,
          "14": -0.26619550585746765,
          "15": 0.42071080207824707,
          "16": 0.27013397216796875,
          "17": -0.5265536904335022,
          "18": -0.4057454764842987,
          "19": 0.38416701555252075,
          "20": -0.24662749469280243,
          "21": 0.7228810787200928,
          "22": 0.7696030139923096,
          "23": -0.3899020552635193,
          "24": 0.8112400770187378,
          "25": -0.35571885108947754,
          "26": -2.3096940517425537,
          "27": -2.2067623138427734,
          "28": 0.8473237156867981,
          "29": 0.8761110901832581,
          "30": -0.3176819384098053,
          "31": -0.3771081268787384,
          "32": 0.3039233684539795,
          "33": 0.2905447781085968,
          "34": -0.1359388530254364,
          "35": -0.16717427968978882,
          "36": -0.05606690049171448,
          "37": 0.030388541519641876,
          "38": 0.10395507514476776,
          "39": 0.32233020663261414,
          "40": -0.2948923110961914,
          "41": -0.5293227434158325,
          "42": 0.10837449133396149,
          "43": -0.49116116762161255,
          "44": -0.013744565658271313,
          "45": -0.9889683127403259,
          "46": 0.6071329116821289,
          "47": -0.22591948509216309,
          "48": 0.25869959592819214,
          "49": -0.08238160610198975
        }
      },
      "33": {
        "bias": 0.02151723951101303,
        "weights": {
          "0": -2.1803789138793945,
          "1": -0.21069787442684174,
          "2": -2.23897385597229,
          "3": -0.390148401260376,
          "4": 0.46046799421310425,
          "5": 0.45228487253189087,
          "6": 2.278834104537964,
          "7": -0.8357080817222595,
          "8": -1.2604892253875732,
          "9": 0.028803706169128418,
          "10": 0.6875863075256348,
          "11": -0.6138627529144287,
          "12": 0.724804699420929,
          "13": -0.7703689932823181,
          "14": 0.26403266191482544,
          "15": -0.619353711605072,
          "16": -0.43810075521469116,
          "17": 0.5335742235183716,
          "18": 0.3937760293483734,
          "19": -0.36012396216392517,
          "20": 0.14405877888202667,
          "21": -0.6843518614768982,
          "22": -0.7946332097053528,
          "23": 0.3305646479129791,
          "24": -0.8453319668769836,
          "25": 0.49591344594955444,
          "26": 2.1963460445404053,
          "27": 2.3395283222198486,
          "28": -0.7361445426940918,
          "29": -0.7312092185020447,
          "30": 0.27223503589630127,
          "31": 0.2985493540763855,
          "32": -0.45663732290267944,
          "33": -0.11732092499732971,
          "34": 0.23551222681999207,
          "35": 0.1847568154335022,
          "36": 0.22596676647663116,
          "37": -0.024710744619369507,
          "38": -0.23436136543750763,
          "39": -0.4217025935649872,
          "40": 0.17152568697929382,
          "41": 0.8022664785385132,
          "42": -0.1455851048231125,
          "43": 0.4125693440437317,
          "44": -0.13263338804244995,
          "45": 0.9345669746398926,
          "46": -0.9539865851402283,
          "47": 0.175226628780365,
          "48": -0.13086310029029846,
          "49": 0.248432919383049
        }
      },
      "34": {
        "bias": -0.21566538512706757,
        "weights": {
          "0": 2.389767646789551,
          "1": -0.04104520380496979,
          "2": 2.274657726287842,
          "3": 0.009646202437579632,
          "4": -0.1769905388355255,
          "5": -0.6736444234848022,
          "6": -2.2245450019836426,
          "7": 0.6730398535728455,
          "8": 1.3016585111618042,
          "9": -0.26236826181411743,
          "10": -0.6561588644981384,
          "11": 0.7261661887168884,
          "12": -0.5939585566520691,
          "13": 0.8926085233688354,
          "14": -0.11710308492183685,
          "15": 0.42464199662208557,
          "16": 0.07439812272787094,
          "17": -0.5405209064483643,
          "18": -0.11016269773244858,
          "19": 0.5555263757705688,
          "20": -0.34912627935409546,
          "21": 0.6835741996765137,
          "22": 0.5855749249458313,
          "23": -0.521397590637207,
          "24": 0.8816801905632019,
          "25": -0.4586503803730011,
          "26": -1.840673804283142,
          "27": -1.9093769788742065,
          "28": 0.8821284174919128,
          "29": 1.0075191259384155,
          "30": -0.36639076471328735,
          "31": -0.1780293881893158,
          "32": 0.30085816979408264,
          "33": 0.31881198287010193,
          "34": -0.30392205715179443,
          "35": -0.027266962453722954,
          "36": -0.07618409395217896,
          "37": 0.09976711869239807,
          "38": 0.17416824400424957,
          "39": 0.03596528619527817,
          "40": -0.17726702988147736,
          "41": -0.6118313074111938,
          "42": -0.05689777806401253,
          "43": -0.2729533910751343,
          "44": -0.12587442994117737,
          "45": -1.1116732358932495,
          "46": 0.9412521123886108,
          "47": -0.063876211643219,
          "48": 0.18366378545761108,
          "49": -0.028740838170051575
        }
      },
      "35": {
        "bias": -0.10173319280147552,
        "weights": {
          "0": 2.2407331466674805,
          "1": -0.08747578412294388,
          "2": 2.5521278381347656,
          "3": -0.021508438512682915,
          "4": -0.1917218118906021,
          "5": -0.495680034160614,
          "6": -2.391749620437622,
          "7": 0.6155499815940857,
          "8": 1.4758394956588745,
          "9": 0.1220492497086525,
          "10": -0.7902790307998657,
          "11": 0.6566211581230164,
          "12": -0.8218762874603271,
          "13": 0.7793693542480469,
          "14": -0.16740380227565765,
          "15": 0.2676684856414795,
          "16": 0.1536644846200943,
          "17": -0.3711152970790863,
          "18": -0.05422310158610344,
          "19": 0.4746604561805725,
          "20": -0.24736061692237854,
          "21": 0.7182316780090332,
          "22": 0.5389392375946045,
          "23": -0.5405825972557068,
          "24": 1.0124565362930298,
          "25": -0.41750696301460266,
          "26": -2.1422696113586426,
          "27": -2.4178688526153564,
          "28": 0.7472809553146362,
          "29": 0.7733166217803955,
          "30": -0.11602187901735306,
          "31": -0.281045526266098,
          "32": 0.4658990800380707,
          "33": 0.2521674931049347,
          "34": -0.09708978235721588,
          "35": -0.1348092406988144,
          "36": -0.2669296860694885,
          "37": 0.22036896646022797,
          "38": 0.20784510672092438,
          "39": 0.1923297941684723,
          "40": -0.43094444274902344,
          "41": -0.4366118311882019,
          "42": -0.1656050831079483,
          "43": -0.4115111827850342,
          "44": 0.19484111666679382,
          "45": -0.9848859310150146,
          "46": 0.6385738849639893,
          "47": -0.14157763123512268,
          "48": 0.06519867479801178,
          "49": -0.14655457437038422
        }
      },
      "36": {
        "bias": -0.062378522008657455,
        "weights": {
          "0": 2.248504161834717,
          "1": 0.06527472287416458,
          "2": 2.359736204147339,
          "3": 0.11910387128591537,
          "4": -0.38198190927505493,
          "5": -0.7687231302261353,
          "6": -2.1862499713897705,
          "7": 0.7324946522712708,
          "8": 1.3620513677597046,
          "9": 0.1935950070619583,
          "10": -0.6047989726066589,
          "11": 0.38984745740890503,
          "12": -0.7648048996925354,
          "13": 0.6234636902809143,
          "14": -0.11945551633834839,
          "15": 0.6203017234802246,
          "16": 0.24422003328800201,
          "17": -0.46810340881347656,
          "18": -0.4031657874584198,
          "19": 0.536936342716217,
          "20": -0.16047915816307068,
          "21": 0.649107813835144,
          "22": 0.8227633237838745,
          "23": -0.6414628028869629,
          "24": 0.8609793782234192,
          "25": -0.4562712609767914,
          "26": -2.62121319770813,
          "27": -2.7550652027130127,
          "28": 1.048667073249817,
          "29": 0.7847422361373901,
          "30": -0.09266629070043564,
          "31": -0.5280219316482544,
          "32": 0.41084975004196167,
          "33": 0.1824852079153061,
          "34": -0.23638105392456055,
          "35": -0.19205203652381897,
          "36": -0.05432192608714104,
          "37": 0.3230714797973633,
          "38": -0.061316896229982376,
          "39": 0.44759538769721985,
          "40": -0.374296098947525,
          "41": -0.4296327531337738,
          "42": 0.17505304515361786,
          "43": -0.38130873441696167,
          "44": -0.0862673819065094,
          "45": -1.1444324254989624,
          "46": 0.6891239285469055,
          "47": -0.23396088182926178,
          "48": 0.28747934103012085,
          "49": -0.32521936297416687
        }
      },
      "37": {
        "bias": -0.07237039506435394,
        "weights": {
          "0": 2.3741421699523926,
          "1": 0.05628859996795654,
          "2": 2.4680960178375244,
          "3": 0.4021294116973877,
          "4": -0.46827736496925354,
          "5": -0.6110482215881348,
          "6": -2.0454769134521484,
          "7": 0.532704770565033,
          "8": 1.1395260095596313,
          "9": 0.08780546486377716,
          "10": -0.8207507729530334,
          "11": 0.47919905185699463,
          "12": -0.7569740414619446,
          "13": 0.847949743270874,
          "14": -0.22994796931743622,
          "15": 0.3675162196159363,
          "16": 0.3810209333896637,
          "17": -0.4554261267185211,
          "18": -0.28252270817756653,
          "19": 0.21359966695308685,
          "20": -0.16078343987464905,
          "21": 0.6152588129043579,
          "22": 0.91846764087677,
          "23": -0.6422268748283386,
          "24": 0.9164121747016907,
          "25": -0.3497381806373596,
          "26": -2.7189996242523193,
          "27": -2.82609224319458,
          "28": 0.816925585269928,
          "29": 0.9505791664123535,
          "30": -0.44138777256011963,
          "31": -0.41786161065101624,
          "32": 0.5019661784172058,
          "33": 0.25487020611763,
          "34": 0.022066308185458183,
          "35": -0.3839569389820099,
          "36": -0.4264751672744751,
          "37": 0.2670573890209198,
          "38": -0.16696366667747498,
          "39": 0.17180484533309937,
          "40": -0.4098837971687317,
          "41": -0.3115639090538025,
          "42": 0.029516885057091713,
          "43": -0.41897764801979065,
          "44": 0.15770435333251953,
          "45": -1.0956560373306274,
          "46": 0.750911295413971,
          "47": -0.4418826103210449,
          "48": 0.15037880837917328,
          "49": -0.07986555993556976
        }
      },
      "38": {
        "bias": 0.09222646057605743,
        "weights": {
          "0": 2.404787302017212,
          "1": 0.0996875986456871,
          "2": 2.33532977104187,
          "3": 0.23837213218212128,
          "4": -0.20005637407302856,
          "5": -0.6460754871368408,
          "6": -2.3192780017852783,
          "7": 0.7075805068016052,
          "8": 1.3031988143920898,
          "9": -0.09096769243478775,
          "10": -0.591498613357544,
          "11": 0.6439206600189209,
          "12": -0.5989870429039001,
          "13": 0.7101616859436035,
          "14": -0.23265673220157623,
          "15": 0.43813398480415344,
          "16": 0.3287423849105835,
          "17": -0.5680993795394897,
          "18": -0.12487160414457321,
          "19": 0.35421475768089294,
          "20": -0.09643607586622238,
          "21": 0.6193293929100037,
          "22": 0.7478699088096619,
          "23": -0.5287328958511353,
          "24": 1.0714505910873413,
          "25": -0.6323981881141663,
          "26": -1.6448397636413574,
          "27": -2.1290407180786133,
          "28": 0.9221947193145752,
          "29": 1.0022996664047241,
          "30": -0.16797269880771637,
          "31": -0.35155531764030457,
          "32": 0.2737986147403717,
          "33": 0.15354441106319427,
          "34": 0.001594463479705155,
          "35": -0.434020072221756,
          "36": -0.2802540361881256,
          "37": 0.07548972964286804,
          "38": 0.18639300763607025,
          "39": 0.2608688175678253,
          "40": -0.2662365138530731,
          "41": -0.7451766133308411,
          "42": 0.14383818209171295,
          "43": -0.3042992949485779,
          "44": 0.1239604502916336,
          "45": -1.270345687866211,
          "46": 0.9956992864608765,
          "47": -0.46932485699653625,
          "48": 0.04631861671805382,
          "49": -0.0878434032201767
        }
      },
      "39": {
        "bias": -0.19713814556598663,
        "weights": {
          "0": 2.4682793617248535,
          "1": -0.004068886861205101,
          "2": 2.358289957046509,
          "3": 0.03058663196861744,
          "4": -0.3888656497001648,
          "5": -0.4633278250694275,
          "6": -2.124741315841675,
          "7": 0.9418360590934753,
          "8": 1.3369791507720947,
          "9": 0.11290538311004639,
          "10": -0.43080857396125793,
          "11": 0.46208226680755615,
          "12": -0.8376057147979736,
          "13": 0.6673057079315186,
          "14": -0.19011932611465454,
